{"learner":{"attributes":{"scikit_learn":"{\"_estimator_type\": \"regressor\"}"},"feature_names":["Discount","ship_mode_enc","ship_ratio","Quantity","cat_Furniture","cat_Office Supplies","cat_Technology"],"feature_types":["float","float","float","float","float","float","float"],"gradient_booster":{"model":{"cats":{"enc":[],"feature_segments":[],"sorted_idx":[]},"gbtree_model_param":{"num_parallel_tree":"1","num_trees":"118"},"iteration_indptr":[0,1,2,3,4,5,6,7,8,9,10,11,12,13,14,15,16,17,18,19,20,21,22,23,24,25,26,27,28,29,30,31,32,33,34,35,36,37,38,39,40,41,42,43,44,45,46,47,48,49,50,51,52,53,54,55,56,57,58,59,60,61,62,63,64,65,66,67,68,69,70,71,72,73,74,75,76,77,78,79,80,81,82,83,84,85,86,87,88,89,90,91,92,93,94,95,96,97,98,99,100,101,102,103,104,105,106,107,108,109,110,111,112,113,114,115,116,117,118],"tree_info":[0,0,0,0,0,0,0,0,0,0,0,0,0,0,0,0,0,0,0,0,0,0,0,0,0,0,0,0,0,0,0,0,0,0,0,0,0,0,0,0,0,0,0,0,0,0,0,0,0,0,0,0,0,0,0,0,0,0,0,0,0,0,0,0,0,0,0,0,0,0,0,0,0,0,0,0,0,0,0,0,0,0,0,0,0,0,0,0,0,0,0,0,0,0,0,0,0,0,0,0,0,0,0,0,0,0,0,0,0,0,0,0,0,0,0,0,0,0],"trees":[{"base_weights":[-7.254097E-4,4.70624E-3,-6.802643E-1,-7.313916E-2,2.0995177E-2,-4.1256177E-1,-9.503926E-1,-4.3873698E-2,-3.2245007E-1,3.3518508E-2,-3.070759E-2,-7.04667E-1,-2.2989E-1,-5.717754E-2,-1.0091672E0,-1.0041791E-1,-5.4523386E-3,-6.767345E-2,-3.7672475E-1,4.6536222E-2,-2.420304E-2,-3.3056125E-2,2.5622211E-2,-3.0176653E-2,-1.0841919E0,3.637474E-2,-3.156976E-1,1.4575178E-2,-2.9806724E-1,-8.108274E-1,-1.296469E0,-6.190406E-2,-1.5739714E-1,2.0539898E-2,-1.11418724E-1,-1.6716957E-1,2.986268E-2,-4.686527E-1,-3.0310205E-1,2.1907454E-2,5.494993E-2,-1.5190083E-1,8.629517E-3,-3.150388E-2,-1.0107462E-1,8.6251386E-2,-3.0768503E-2,8.783195E-3,-6.7686476E-2,7.443697E-2,-7.757088E-2,-3.9111522E-1,2.7130738E-2,-2.3904454E-2,1.01324864E-1,-4.825447E-2,-2.4571342E-2,-7.417575E-2,-4.770433E-2,-2.7188915E-3,-2.1106876E-2,-1.0348577E-2,-6.0382998E-3,2.9487E-3,2.161312E-4,-1.1342799E-2,-7.567854E-4,-1.9152982E-2,-3.4835108E-3,-7.445616E-3,2.8313647E-3,-2.45374E-2,-1.2621889E-2,-8.005998E-3,-2.027791E-2,-3.7832433E-4,1.7122955E-3,3.2481526E-3,2.2320654E-3,-2.8381392E-3,-1.856686E-2,-1.4182677E-3,1.3429528E-3,-1.6179205E-3,5.3463466E-3,-6.3583725E-3,2.2329083E-3,2.6265213E-3,5.880392E-3,-1.0137069E-2,7.634015E-4,5.430076E-3,-4.4685784E-3,-8.03478E-3,4.3413634E-3,-2.1534562E-2,-6.7167836E-3,-4.5797043E-3,8.795056E-3,-1.186567E-3,8.785932E-3],"categories":[],"categories_nodes":[],"categories_segments":[],"categories_sizes":[],"default_left":[0,0,0,0,0,0,0,0,0,0,0,0,0,0,0,0,0,0,0,0,0,0,0,0,0,0,0,0,0,0,0,0,0,0,0,0,0,0,0,0,0,0,0,0,0,0,0,0,0,0,0,0,0,0,0,0,0,0,0,0,0,0,0,0,0,0,0,0,0,0,0,0,0,0,0,0,0,0,0,0,0,0,0,0,0,0,0,0,0,0,0,0,0,0,0,0,0,0,0,0,0],"id":0,"left_children":[1,3,5,7,9,11,13,15,17,19,21,23,25,27,29,31,33,35,37,39,41,43,45,-1,47,49,51,-1,53,55,57,59,61,63,65,67,69,71,73,75,77,79,81,83,85,87,89,-1,-1,91,93,95,97,-1,99,-1,-1,-1,-1,-1,-1,-1,-1,-1,-1,-1,-1,-1,-1,-1,-1,-1,-1,-1,-1,-1,-1,-1,-1,-1,-1,-1,-1,-1,-1,-1,-1,-1,-1,-1,-1,-1,-1,-1,-1,-1,-1,-1,-1,-1,-1],"loss_changes":[1.5127583E2,5.155919E1,2.3109955E1,5.1321907E1,2.1772911E1,8.642302E0,8.394562E0,1.3681891E1,1.01933365E1,2.0340843E1,8.68289E-1,1.7637749E0,2.36478E0,1.0108182E0,7.5532684E0,5.5818157E0,1.0333681E1,1.2762773E0,3.9796524E0,4.575859E0,2.0889067E1,6.614528E-1,9.0183043E-1,0E0,4.3127413E0,1.18536785E-1,2.0273237E0,0E0,5.5173737E-1,4.0586967E0,2.4270782E0,4.1034937E0,1.8400021E0,1.8777369E0,8.210291E0,1.3415061E0,3.2901707E-1,1.1612129E0,4.9305096E0,2.046227E0,1.6964302E0,2.1252329E1,2.6740813E0,7.3167276E-1,5.3804016E-1,1.2810796E-1,1.0877292E0,0E0,0E0,1.2163475E-1,1.096116E-1,5.925312E-1,2.8105253E-1,0E0,3.2080248E-2,0E0,0E0,0E0,0E0,0E0,0E0,0E0,0E0,0E0,0E0,0E0,0E0,0E0,0E0,0E0,0E0,0E0,0E0,0E0,0E0,0E0,0E0,0E0,0E0,0E0,0E0,0E0,0E0,0E0,0E0,0E0,0E0,0E0,0E0,0E0,0E0,0E0,0E0,0E0,0E0,0E0,0E0,0E0,0E0,0E0,0E0],"parents":[2147483647,0,0,1,1,2,2,3,3,4,4,5,5,6,6,7,7,8,8,9,9,10,10,11,11,12,12,13,13,14,14,15,15,16,16,17,17,18,18,19,19,20,20,21,21,22,22,24,24,25,25,26,26,28,28,29,29,30,30,31,31,32,32,33,33,34,34,35,35,36,36,37,37,38,38,39,39,40,40,41,41,42,42,43,43,44,44,45,45,46,46,49,49,50,50,51,51,52,52,54,54],"right_children":[2,4,6,8,10,12,14,16,18,20,22,24,26,28,30,32,34,36,38,40,42,44,46,-1,48,50,52,-1,54,56,58,60,62,64,66,68,70,72,74,76,78,80,82,84,86,88,90,-1,-1,92,94,96,98,-1,100,-1,-1,-1,-1,-1,-1,-1,-1,-1,-1,-1,-1,-1,-1,-1,-1,-1,-1,-1,-1,-1,-1,-1,-1,-1,-1,-1,-1,-1,-1,-1,-1,-1,-1,-1,-1,-1,-1,-1,-1,-1,-1,-1,-1,-1,-1],"split_conditions":[4.389313E-1,2E0,5.1644737E-1,2.5857168E-1,1E0,1E0,1E0,1E0,1E0,1.6809116E-1,2.6881105E-1,3E0,1E0,1E0,2E0,1.0413534E-1,1.808183E-1,1E0,1E0,1E0,1E0,2.3728813E-1,3.093736E-1,-3.0176653E-2,1E0,5E0,4E0,1.4575178E-2,2E0,2E0,2E0,3E0,1E0,8.025372E-2,1E0,2.8674722E-1,1E0,4.0563127E-1,3.093736E-1,3E0,4E0,2.2241887E-1,3E0,2.2964713E-1,7E0,4E0,2E0,8.783195E-3,-6.7686476E-2,3E0,1E0,3E0,3E0,-2.3904454E-2,3E0,-4.825447E-2,-2.4571342E-2,-7.417575E-2,-4.770433E-2,-2.7188915E-3,-2.1106876E-2,-1.0348577E-2,-6.0382998E-3,2.9487E-3,2.161312E-4,-1.1342799E-2,-7.567854E-4,-1.9152982E-2,-3.4835108E-3,-7.445616E-3,2.8313647E-3,-2.45374E-2,-1.2621889E-2,-8.005998E-3,-2.027791E-2,-3.7832433E-4,1.7122955E-3,3.2481526E-3,2.2320654E-3,-2.8381392E-3,-1.856686E-2,-1.4182677E-3,1.3429528E-3,-1.6179205E-3,5.3463466E-3,-6.3583725E-3,2.2329083E-3,2.6265213E-3,5.880392E-3,-1.0137069E-2,7.634015E-4,5.430076E-3,-4.4685784E-3,-8.03478E-3,4.3413634E-3,-2.1534562E-2,-6.7167836E-3,-4.5797043E-3,8.795056E-3,-1.186567E-3,8.785932E-3],"split_indices":[2,3,2,2,4,1,5,5,5,2,2,3,5,4,3,2,2,4,1,5,1,2,2,0,5,3,3,0,1,1,1,1,1,2,1,2,1,2,2,3,3,2,3,2,3,3,1,0,0,1,4,1,1,0,1,0,0,0,0,0,0,0,0,0,0,0,0,0,0,0,0,0,0,0,0,0,0,0,0,0,0,0,0,0,0,0,0,0,0,0,0,0,0,0,0,0,0,0,0,0,0],"split_type":[0,0,0,0,0,0,0,0,0,0,0,0,0,0,0,0,0,0,0,0,0,0,0,0,0,0,0,0,0,0,0,0,0,0,0,0,0,0,0,0,0,0,0,0,0,0,0,0,0,0,0,0,0,0,0,0,0,0,0,0,0,0,0,0,0,0,0,0,0,0,0,0,0,0,0,0,0,0,0,0,0,0,0,0,0,0,0,0,0,0,0,0,0,0,0,0,0,0,0,0,0],"sum_hessian":[4.0983E4,4.0659E4,3.24E2,7.035E3,3.3624E4,1.64E2,1.6E2,6.297E3,7.38E2,2.7068E4,6.556E3,6.2E1,1.02E2,1E1,1.5E2,2.547E3,3.75E3,1.3E2,6.08E2,2.2087E4,4.981E3,6.294E3,2.62E2,5.1E1,1.1E1,2.5E1,7.7E1,4E0,6E0,9.1E1,5.9E1,1.521E3,1.026E3,3.012E3,7.38E2,6.4E1,6.6E1,2.68E2,3.4E2,5.625E3,1.6462E4,1.018E3,3.963E3,6.155E3,1.39E2,1.26E2,1.36E2,2E0,9E0,1.9E1,6E0,6.3E1,1.4E1,4E0,2E0,6E1,3.1E1,3.6E1,2.3E1,1.491E3,3E1,4.34E2,5.92E2,8.93E2,2.119E3,3.35E2,4.03E2,1.9E1,4.5E1,8E0,5.8E1,2.42E2,2.6E1,1.43E2,1.97E2,1.66E3,3.965E3,8.348E3,8.114E3,7.11E2,3.07E2,1.308E3,2.655E3,6.118E3,3.7E1,1.18E2,2.1E1,6.2E1,6.4E1,2.8E1,1.08E2,1.6E1,3E0,4E0,2E0,5.4E1,9E0,8E0,6E0,1E0,1E0],"tree_param":{"num_deleted":"0","num_feature":"7","num_nodes":"101","size_leaf_vector":"1"}},{"base_weights":[1.3712919E-3,1.4175107E-1,-9.171483E-1,1.8455331E-1,-2.6143655E-1,-6.763709E-1,-1.4601474E0,2.1593563E-1,9.8021135E-2,-1.18532784E-1,-2.9785243E-1,-5.024667E-1,-9.098374E-1,-1.3770165E0,-1.9069556E0,2.0465067E-1,2.2192463E-1,6.2598065E-2,1.2955345E-1,-5.903185E-2,-1.6440874E-1,-2.8981343E-1,-3.199955E-1,-4.477986E-1,-5.3630877E-1,-4.765941E-2,-8.748314E-1,-1.5530562E0,-1.3003856E0,-9.267048E-2,-1.2816626E-1,1.9982965E-1,2.1082221E-1,2.1668191E-1,2.3130237E-1,1.19151756E-1,3.033576E-2,1.0403103E-1,1.5806429E-1,-9.9762715E-2,-4.578566E-2,-1.4995527E-1,-1.9528525E-1,-1.7527437E-1,-2.9116634E-1,-3.08576E-1,-3.4627554E-1,-4.4893986E-1,-9.846742E-2,-1.0159041E-2,-5.371579E-1,-4.4539317E-2,-8.1608355E-1,-7.841762E-2,-6.011338E-2,-1.3332337E0,-5.7494488E-2,1.00651495E-2,9.091839E-3,1.0249054E-2,1.0946944E-2,1.0226118E-2,1.0920762E-2,1.213232E-2,1.126015E-2,5.0571295E-3,6.487875E-3,2.4160885E-3,5.850598E-4,5.8160345E-3,2.8201619E-3,5.471314E-3,8.179999E-3,-2.2606403E-3,-5.9564556E-3,-2.5411337E-3,3.0016343E-3,2.7783928E-3,-7.700607E-3,-1.7741928E-3,-1.0384939E-2,-1.1234987E-2,-5.428221E-3,-1.4622892E-2,-8.905504E-3,-1.5665703E-2,-7.651057E-3,-1.670496E-2,-2.051661E-2,-2.1875123E-2,-2.4593217E-2,-6.475792E-4,-6.132775E-3,-2.7731234E-2,-2.616846E-2,-4.2310294E-2,-2.768263E-2,-1.7933318E-2,-6.6699855E-2],"categories":[],"categories_nodes":[],"categories_segments":[],"categories_sizes":[],"default_left":[0,0,0,0,0,0,0,0,0,0,0,0,0,0,0,0,0,0,0,0,0,0,0,0,0,0,0,0,0,0,0,0,0,0,0,0,0,0,0,0,0,0,0,0,0,0,0,0,0,0,0,0,0,0,0,0,0,0,0,0,0,0,0,0,0,0,0,0,0,0,0,0,0,0,0,0,0,0,0,0,0,0,0,0,0,0,0,0,0,0,0,0,0,0,0,0,0,0,0],"id":1,"left_children":[1,3,5,7,9,11,13,15,17,19,21,23,25,27,29,31,33,35,37,39,41,43,45,47,49,-1,51,53,55,-1,-1,57,59,61,63,65,67,69,71,73,75,77,79,81,83,85,87,89,91,-1,93,-1,95,-1,-1,97,-1,-1,-1,-1,-1,-1,-1,-1,-1,-1,-1,-1,-1,-1,-1,-1,-1,-1,-1,-1,-1,-1,-1,-1,-1,-1,-1,-1,-1,-1,-1,-1,-1,-1,-1,-1,-1,-1,-1,-1,-1,-1,-1],"loss_changes":[5.302723E3,6.156693E2,7.118174E2,8.75564E1,1.778305E1,1.5297327E2,5.9552246E1,1.5540771E0,9.581085E0,1.892869E0,3.9286804E-1,3.770813E0,1.6124268E0,1.7069092E1,4.387085E0,2.0239258E-1,7.094116E-1,7.3767004E0,3.2878876E0,1.5998864E-1,1.4610004E-1,2.607422E-1,1.0832214E-1,2.886963E-1,2.68219E-1,0E0,1.2036133E-1,3.8946533E-1,3.3709717E0,0E0,0E0,8.621216E-2,1.2513733E-1,1.6448975E-1,3.2763672E-1,2.6745605E-1,8.6314535E-1,1.3976479E0,5.5908585E-1,7.2790086E-2,1.2670887E-1,2.3534584E-1,2.3464155E-1,6.133181E-2,2.3803711E-1,3.2720184E-1,2.5922775E-2,1.9326782E-1,6.6852756E-3,0E0,3.0029297E-2,0E0,1.1520233E0,0E0,0E0,1.22558594E-1,0E0,0E0,0E0,0E0,0E0,0E0,0E0,0E0,0E0,0E0,0E0,0E0,0E0,0E0,0E0,0E0,0E0,0E0,0E0,0E0,0E0,0E0,0E0,0E0,0E0,0E0,0E0,0E0,0E0,0E0,0E0,0E0,0E0,0E0,0E0,0E0,0E0,0E0,0E0,0E0,0E0,0E0,0E0],"parents":[2147483647,0,0,1,1,2,2,3,3,4,4,5,5,6,6,7,7,8,8,9,9,10,10,11,11,12,12,13,13,14,14,15,15,16,16,17,17,18,18,19,19,20,20,21,21,22,22,23,23,24,24,26,26,27,27,28,28,31,31,32,32,33,33,34,34,35,35,36,36,37,37,38,38,39,39,40,40,41,41,42,42,43,43,44,44,45,45,46,46,47,47,48,48,50,50,52,52,55,55],"right_children":[2,4,6,8,10,12,14,16,18,20,22,24,26,28,30,32,34,36,38,40,42,44,46,48,50,-1,52,54,56,-1,-1,58,60,62,64,66,68,70,72,74,76,78,80,82,84,86,88,90,92,-1,94,-1,96,-1,-1,98,-1,-1,-1,-1,-1,-1,-1,-1,-1,-1,-1,-1,-1,-1,-1,-1,-1,-1,-1,-1,-1,-1,-1,-1,-1,-1,-1,-1,-1,-1,-1,-1,-1,-1,-1,-1,-1,-1,-1,-1,-1,-1,-1],"split_conditions":[4.5E-1,2.7E-1,7E-1,7E-2,3.7E-1,5.7E-1,8E-1,1E0,1E0,3E-1,1E0,5E-1,1.0467896E-1,1E0,1E0,1E0,1.2548262E-1,1.5E-1,2E-1,1E0,3.2E-1,4E-1,1.1796794E-1,3.832258E-1,1.6324535E-2,-4.765941E-2,1E0,3E0,3.5070702E-1,-9.267048E-2,-1.2816626E-1,2E-3,1.0273872E-1,4.590772E-2,1E0,7.754847E-2,1E0,1.5E-1,5.8123607E-2,6.920732E-2,3E0,1E0,3.4614373E-2,7.800453E-2,3.832258E-1,1.1340852E-1,3E0,2E0,1E0,-1.0159041E-2,8.9864284E-2,-4.4539317E-2,2.5454545E-1,-7.841762E-2,-6.011338E-2,1.6324535E-2,-5.7494488E-2,1.00651495E-2,9.091839E-3,1.0249054E-2,1.0946944E-2,1.0226118E-2,1.0920762E-2,1.213232E-2,1.126015E-2,5.0571295E-3,6.487875E-3,2.4160885E-3,5.850598E-4,5.8160345E-3,2.8201619E-3,5.471314E-3,8.179999E-3,-2.2606403E-3,-5.9564556E-3,-2.5411337E-3,3.0016343E-3,2.7783928E-3,-7.700607E-3,-1.7741928E-3,-1.0384939E-2,-1.1234987E-2,-5.428221E-3,-1.4622892E-2,-8.905504E-3,-1.5665703E-2,-7.651057E-3,-1.670496E-2,-2.051661E-2,-2.1875123E-2,-2.4593217E-2,-6.475792E-4,-6.132775E-3,-2.7731234E-2,-2.616846E-2,-4.2310294E-2,-2.768263E-2,-1.7933318E-2,-6.6699855E-2],"split_indices":[0,0,0,0,0,0,0,5,5,0,4,0,2,5,4,4,2,0,0,4,0,0,2,2,2,0,4,1,2,0,0,0,2,2,1,2,4,0,2,2,1,4,2,2,2,2,1,1,1,0,2,0,2,0,0,2,0,0,0,0,0,0,0,0,0,0,0,0,0,0,0,0,0,0,0,0,0,0,0,0,0,0,0,0,0,0,0,0,0,0,0,0,0,0,0,0,0,0,0],"split_type":[0,0,0,0,0,0,0,0,0,0,0,0,0,0,0,0,0,0,0,0,0,0,0,0,0,0,0,0,0,0,0,0,0,0,0,0,0,0,0,0,0,0,0,0,0,0,0,0,0,0,0,0,0,0,0,0,0,0,0,0,0,0,0,0,0,0,0,0,0,0,0,0,0,0,0,0,0,0,0,0,0,0,0,0,0,0,0,0,0,0,0,0,0,0,0,0,0,0,0],"sum_hessian":[4.1123E4,3.5672E4,5.451E3,3.2249E4,3.423E3,3.778E3,1.673E3,2.3665E4,8.584E3,6.96E2,2.727E3,2.167E3,1.611E3,1.414E3,2.59E2,8.217E3,1.5448E4,4.044E3,4.54E3,3.04E2,3.92E2,2.011E3,7.16E2,8.34E2,1.333E3,7.08E2,9.03E2,4.23E2,9.91E2,2.43E2,1.6E1,4.632E3,3.585E3,9.924E3,5.524E3,1.468E3,2.576E3,2.398E3,2.142E3,7.3E1,2.31E2,2.71E2,1.21E2,2.5E1,1.986E3,5.08E2,2.08E2,8.31E2,3E0,4E0,1.329E3,6.99E2,2.04E2,4.02E2,2.1E1,8.07E2,1.84E2,4.272E3,3.6E2,2.1E3,1.485E3,1.253E3,8.671E3,1.918E3,3.606E3,5.48E2,9.2E2,1.31E3,1.266E3,1.905E3,4.93E2,2.21E2,1.921E3,2E1,5.3E1,2.21E2,1E1,5E0,2.66E2,9E0,1.12E2,1.3E1,1.2E1,1.962E3,2.4E1,4.92E2,1.6E1,1.8E2,2.8E1,6.65E2,1.66E2,1E0,2E0,5.69E2,7.6E2,1.81E2,2.3E1,1E0,8.06E2],"tree_param":{"num_deleted":"0","num_feature":"7","num_nodes":"99","size_leaf_vector":"1"}},{"base_weights":[7.880914E-4,1.3517556E-1,-8.773302E-1,1.764357E-1,-2.3790267E-1,-6.454506E-1,-1.3818159E0,2.0485319E-1,9.621353E-2,-8.280751E-2,-2.8004017E-1,-4.7887442E-1,-8.6477333E-1,-1.3080795E0,-1.8027428E0,1.9337018E-1,2.1093525E-1,6.474083E-2,1.2264524E-1,-4.584314E-2,-1.4732906E-1,-2.1140291E-1,-2.8413856E-1,-4.2792225E-1,-5.1088023E-1,-4.4087265E-2,-4.0872738E-2,-1.390802E0,-1.1512446E0,-8.754099E-2,-1.2549333E-1,1.9461714E-1,1.6672704E-1,2.0936997E-1,1.07714245E-2,1.1134632E-1,3.6248803E-2,9.810535E-2,1.4981969E-1,-3.7143268E-2,-9.27912E-2,5.3252526E-2,-1.5122633E-1,-2.3496819E-1,-1.5103115E-1,-2.7690896E-1,-3.0384773E-1,-4.1904646E-1,-2.307268E-2,-2.680566E-2,-2.4832943E-2,-7.225843E-2,-1.3027717E0,-1.0857491E0,-7.616747E-2,9.516442E-3,9.980895E-3,8.360629E-3,4.000533E-3,1.029017E-2,1.0530586E-2,5.6070643E-3,1.0812863E-3,2.649895E-3,9.226612E-4,5.419995E-3,2.9053153E-3,7.1726586E-3,7.966052E-3,-1.6738111E-3,-4.8694885E-3,-5.8661965E-3,-4.2931232E-4,4.9301493E-3,-1.2482799E-3,-7.189702E-3,-8.890028E-3,-8.687082E-3,-1.3164771E-2,-4.8709475E-3,-1.2153204E-2,-1.3763196E-2,-1.8450698E-2,-1.4832797E-2,-1.6627314E-2,-2.1714926E-2,-1.7860299E-2,-7.189851E-2,-6.2012162E-2,-4.229441E-2,-5.68901E-2],"categories":[],"categories_nodes":[],"categories_segments":[],"categories_sizes":[],"default_left":[0,0,0,0,0,0,0,0,0,0,0,0,0,0,0,0,0,0,0,0,0,0,0,0,0,0,0,0,0,0,0,0,0,0,0,0,0,0,0,0,0,0,0,0,0,0,0,0,0,0,0,0,0,0,0,0,0,0,0,0,0,0,0,0,0,0,0,0,0,0,0,0,0,0,0,0,0,0,0,0,0,0,0,0,0,0,0,0,0,0,0],"id":2,"left_children":[1,3,5,7,9,11,13,15,17,19,21,23,25,27,29,31,33,35,37,39,41,43,45,47,49,-1,-1,51,53,-1,-1,55,57,59,-1,61,63,65,67,69,71,73,75,77,79,81,83,85,-1,-1,-1,-1,87,89,-1,-1,-1,-1,-1,-1,-1,-1,-1,-1,-1,-1,-1,-1,-1,-1,-1,-1,-1,-1,-1,-1,-1,-1,-1,-1,-1,-1,-1,-1,-1,-1,-1,-1,-1,-1,-1],"loss_changes":[4.8447046E3,5.481191E2,6.3653174E2,7.306781E1,2.3151062E1,1.3604004E2,5.0871094E1,1.6125488E0,6.9698563E0,1.8034601E0,7.241974E-1,3.2468262E0,5.7299805E-1,1.7379639E1,4.8947754E0,2.4029541E-1,6.365967E-2,5.08309E0,3.0248337E0,1.942395E-1,2.2380781E-1,1.9356394E-1,2.9032898E-1,5.2444458E-2,2.0022583E-1,0E0,0E0,2.6782227E0,1.0799744E1,0E0,0E0,1.3006592E-1,2.368927E-3,7.6293945E-3,0E0,1.0120964E-1,7.081065E-1,9.811344E-1,1.0786438E-1,8.731961E-2,1.5392596E-1,2.3745049E-2,2.7957916E-2,1.5197372E-1,2.1315718E-1,1.9146729E-1,4.4784546E-2,4.7114563E-1,0E0,0E0,0E0,0E0,1.3783569E0,4.5061646E0,0E0,0E0,0E0,0E0,0E0,0E0,0E0,0E0,0E0,0E0,0E0,0E0,0E0,0E0,0E0,0E0,0E0,0E0,0E0,0E0,0E0,0E0,0E0,0E0,0E0,0E0,0E0,0E0,0E0,0E0,0E0,0E0,0E0,0E0,0E0,0E0,0E0],"parents":[2147483647,0,0,1,1,2,2,3,3,4,4,5,5,6,6,7,7,8,8,9,9,10,10,11,11,12,12,13,13,14,14,15,15,16,16,17,17,18,18,19,19,20,20,21,21,22,22,23,23,24,24,27,27,28,28,31,31,32,32,33,33,35,35,36,36,37,37,38,38,39,39,40,40,41,41,42,42,43,43,44,44,45,45,46,46,47,47,52,52,53,53],"right_children":[2,4,6,8,10,12,14,16,18,20,22,24,26,28,30,32,34,36,38,40,42,44,46,48,50,-1,-1,52,54,-1,-1,56,58,60,-1,62,64,66,68,70,72,74,76,78,80,82,84,86,-1,-1,-1,-1,88,90,-1,-1,-1,-1,-1,-1,-1,-1,-1,-1,-1,-1,-1,-1,-1,-1,-1,-1,-1,-1,-1,-1,-1,-1,-1,-1,-1,-1,-1,-1,-1,-1,-1,-1,-1,-1,-1],"split_conditions":[4.5E-1,2.02E-1,6.5E-1,7E-2,3.2E-1,5.7E-1,8E-1,1E0,1E0,3E-1,4E-1,5E-1,1E0,3E0,1E0,2E-3,5E0,1.5E-1,2E-1,1E0,1E0,5E0,1E0,2E0,1E0,-4.4087265E-2,-4.0872738E-2,2E0,1E0,-8.754099E-2,-1.2549333E-1,1E0,1E1,2E0,1.07714245E-2,1.2E1,1E0,1.5E-1,1E0,9E0,2E0,3E0,2E0,1E0,1E0,1E1,2E0,1E0,-2.307268E-2,-2.680566E-2,-2.4832943E-2,-7.225843E-2,1E0,4E0,-7.616747E-2,9.516442E-3,9.980895E-3,8.360629E-3,4.000533E-3,1.029017E-2,1.0530586E-2,5.6070643E-3,1.0812863E-3,2.649895E-3,9.226612E-4,5.419995E-3,2.9053153E-3,7.1726586E-3,7.966052E-3,-1.6738111E-3,-4.8694885E-3,-5.8661965E-3,-4.2931232E-4,4.9301493E-3,-1.2482799E-3,-7.189702E-3,-8.890028E-3,-8.687082E-3,-1.3164771E-2,-4.8709475E-3,-1.2153204E-2,-1.3763196E-2,-1.8450698E-2,-1.4832797E-2,-1.6627314E-2,-2.1714926E-2,-1.7860299E-2,-7.189851E-2,-6.2012162E-2,-4.229441E-2,-5.68901E-2],"split_indices":[0,0,0,0,0,0,0,5,5,0,0,0,4,3,4,0,3,0,0,5,4,3,4,1,5,0,0,3,4,0,0,4,3,3,0,3,4,0,1,3,1,3,1,4,1,3,1,1,0,0,0,0,5,3,0,0,0,0,0,0,0,0,0,0,0,0,0,0,0,0,0,0,0,0,0,0,0,0,0,0,0,0,0,0,0,0,0,0,0,0,0],"split_type":[0,0,0,0,0,0,0,0,0,0,0,0,0,0,0,0,0,0,0,0,0,0,0,0,0,0,0,0,0,0,0,0,0,0,0,0,0,0,0,0,0,0,0,0,0,0,0,0,0,0,0,0,0,0,0,0,0,0,0,0,0,0,0,0,0,0,0,0,0,0,0,0,0,0,0,0,0,0,0,0,0,0,0,0,0,0,0,0,0,0,0],"sum_hessian":[4.1052E4,3.5604E4,5.448E3,3.2059E4,3.545E3,3.734E3,1.714E3,2.3672E4,8.387E3,7.58E2,2.787E3,2.124E3,1.61E3,1.462E3,2.52E2,8.208E3,1.5464E4,3.83E3,4.557E3,4.83E2,2.75E2,1.6E2,2.627E3,8.25E2,1.299E3,1.172E3,4.38E2,9.52E2,5.1E2,2.38E2,1.4E1,7.835E3,3.73E2,1.1504E4,3.96E3,1.452E3,2.378E3,2.397E3,2.16E3,4.09E2,7.4E1,5E0,2.7E2,1.13E2,4.7E1,1.933E3,6.94E2,6.63E2,1.62E2,4.55E2,8.44E2,5.79E2,3.73E2,4.37E2,7.3E1,4.239E3,3.596E3,3.7E2,3E0,3.014E3,8.49E3,1.439E3,1.3E1,1.224E3,1.154E3,1.905E3,4.92E2,1.303E3,8.57E2,3.87E2,2.2E1,5.7E1,1.7E1,3E0,2E0,2.16E2,5.4E1,3.8E1,7.5E1,3.1E1,1.6E1,1.903E3,3E1,5.64E2,1.3E2,5.27E2,1.36E2,1.11E2,2.62E2,8.1E1,3.56E2],"tree_param":{"num_deleted":"0","num_feature":"7","num_nodes":"91","size_leaf_vector":"1"}},{"base_weights":[-4.0939043E-4,2.701092E-3,-8.153731E-1,-6.86169E-2,1.7642463E-2,-1.6999919E-2,-8.641375E-1,-3.7838604E-2,-3.061545E-1,2.7982468E-2,-2.4261232E-2,-1.8066553E-2,1.1424926E-1,-9.459877E-1,-6.811311E-1,-8.812377E-2,-4.4385702E-3,-7.458712E-2,-3.5345674E-1,3.875685E-2,-1.8684492E-2,-2.694388E-2,3.633485E-2,1.2955181E-2,-9.538102E-2,-4.171124E-2,-5.5919986E-2,-2.7291024E-2,-7.993372E-1,-5.679051E-2,-1.2438242E-1,1.5458886E-2,-1.0607932E-1,6.0072683E-2,-1.1876337E-1,-4.569138E-1,-2.7460995E-1,2.0408113E-2,4.509532E-2,-1.435301E-1,1.3605126E-2,-2.5682274E-2,-8.086146E-2,-3.4476403E-2,6.624796E-2,-1.6386595E-2,9.131322E-2,-4.252527E-2,-3.3087015E-1,-2.4936858E-3,-1.7407076E-2,-8.22327E-3,-4.6752766E-3,4.556026E-3,2.835226E-4,-1.0043583E-2,-1.6835056E-3,4.936959E-3,-1.663344E-3,-9.345175E-3,3.3127845E-3,-1.5011588E-2,-2.4866952E-2,-7.4234167E-3,-1.7813127E-2,1.2398626E-4,1.400106E-3,2.7670867E-3,1.7284636E-3,-3.3314524E-3,-1.825617E-2,-1.1396438E-3,1.5695113E-3,-1.33645E-3,4.435724E-3,-5.3416225E-3,1.6201579E-3,3.5434102E-3,-6.2665464E-3,3.49249E-3,-6.3852333E-3,-1.1945958E-3,8.043087E-3,1.5799574E-3,-3.545695E-2],"categories":[],"categories_nodes":[],"categories_segments":[],"categories_sizes":[],"default_left":[0,0,0,0,0,0,0,0,0,0,0,0,0,0,0,0,0,0,0,0,0,0,0,0,0,0,0,0,0,0,0,0,0,0,0,0,0,0,0,0,0,0,0,0,0,0,0,0,0,0,0,0,0,0,0,0,0,0,0,0,0,0,0,0,0,0,0,0,0,0,0,0,0,0,0,0,0,0,0,0,0,0,0,0,0],"id":3,"left_children":[1,3,5,7,9,11,13,15,17,19,21,-1,23,25,27,29,31,33,35,37,39,41,43,-1,45,-1,-1,-1,47,49,51,53,55,57,59,61,63,65,67,69,71,73,75,77,79,-1,81,-1,83,-1,-1,-1,-1,-1,-1,-1,-1,-1,-1,-1,-1,-1,-1,-1,-1,-1,-1,-1,-1,-1,-1,-1,-1,-1,-1,-1,-1,-1,-1,-1,-1,-1,-1,-1,-1],"loss_changes":[1.04005325E2,4.3555008E1,6.0587234E0,5.175031E1,1.4643092E1,4.9321365E-1,1.5575943E0,1.0528558E1,8.868004E0,1.3629833E1,1.0883281E0,0E0,2.6764047E-1,9.7465515E-1,3.474388E-1,2.8354626E0,7.622014E0,8.3401275E-1,5.3725204E0,2.5603027E0,2.0500694E1,4.3367672E-1,6.038484E-1,0E0,2.0344052E-1,0E0,0E0,0E0,2.9388714E-1,2.6910872E0,1.4190445E0,2.3338828E0,4.2282248E0,1.2960374E-1,1.3361417E0,1.6875114E0,3.9125252E0,7.699857E-1,1.76334E0,1.778326E1,2.6166248E0,7.520757E-1,4.3293452E-1,8.224198E-1,1.4863741E-1,0E0,2.788034E-2,0E0,5.708516E-1,0E0,0E0,0E0,0E0,0E0,0E0,0E0,0E0,0E0,0E0,0E0,0E0,0E0,0E0,0E0,0E0,0E0,0E0,0E0,0E0,0E0,0E0,0E0,0E0,0E0,0E0,0E0,0E0,0E0,0E0,0E0,0E0,0E0,0E0,0E0,0E0],"parents":[2147483647,0,0,1,1,2,2,3,3,4,4,5,5,6,6,7,7,8,8,9,9,10,10,12,12,13,13,14,14,15,15,16,16,17,17,18,18,19,19,20,20,21,21,22,22,24,24,28,28,29,29,30,30,31,31,32,32,33,33,34,34,35,35,36,36,37,37,38,38,39,39,40,40,41,41,42,42,43,43,44,44,46,46,48,48],"right_children":[2,4,6,8,10,12,14,16,18,20,22,-1,24,26,28,30,32,34,36,38,40,42,44,-1,46,-1,-1,-1,48,50,52,54,56,58,60,62,64,66,68,70,72,74,76,78,80,-1,82,-1,84,-1,-1,-1,-1,-1,-1,-1,-1,-1,-1,-1,-1,-1,-1,-1,-1,-1,-1,-1,-1,-1,-1,-1,-1,-1,-1,-1,-1,-1,-1,-1,-1,-1,-1,-1,-1],"split_conditions":[5.1644737E-1,2E0,1E0,2.5857168E-1,1E0,2E0,2E0,1E0,1E0,1.6809116E-1,2.6881105E-1,-1.8066553E-2,3E0,2E0,2E0,9.5167965E-2,1.887439E-1,2E0,1E0,1E0,1E0,2.3728813E-1,3E0,1.2955181E-2,2E0,-4.171124E-2,-5.5919986E-2,-2.7291024E-2,5E0,3E0,1E0,5.9111953E-2,1E0,3.3832976E-1,3.3832976E-1,2.804349E-1,3.093736E-1,3E0,4E0,2.4135135E-1,3E0,2.2614093E-1,6E0,3.1770834E-1,1E1,-1.6386595E-2,3E0,-4.252527E-2,9E0,-2.4936858E-3,-1.7407076E-2,-8.22327E-3,-4.6752766E-3,4.556026E-3,2.835226E-4,-1.0043583E-2,-1.6835056E-3,4.936959E-3,-1.663344E-3,-9.345175E-3,3.3127845E-3,-1.5011588E-2,-2.4866952E-2,-7.4234167E-3,-1.7813127E-2,1.2398626E-4,1.400106E-3,2.7670867E-3,1.7284636E-3,-3.3314524E-3,-1.825617E-2,-1.1396438E-3,1.5695113E-3,-1.33645E-3,4.435724E-3,-5.3416225E-3,1.6201579E-3,3.5434102E-3,-6.2665464E-3,3.49249E-3,-6.3852333E-3,-1.1945958E-3,8.043087E-3,1.5799574E-3,-3.545695E-2],"split_indices":[2,3,5,2,4,3,1,5,5,2,2,0,3,3,3,2,2,1,1,5,1,2,3,0,1,0,0,0,3,1,1,2,1,2,2,2,2,3,3,2,3,2,3,2,3,0,1,0,3,0,0,0,0,0,0,0,0,0,0,0,0,0,0,0,0,0,0,0,0,0,0,0,0,0,0,0,0,0,0,0,0,0,0,0,0],"split_type":[0,0,0,0,0,0,0,0,0,0,0,0,0,0,0,0,0,0,0,0,0,0,0,0,0,0,0,0,0,0,0,0,0,0,0,0,0,0,0,0,0,0,0,0,0,0,0,0,0,0,0,0,0,0,0,0,0,0,0,0,0,0,0,0,0,0,0,0,0,0,0,0,0,0,0,0,0,0,0,0,0,0,0,0,0],"sum_hessian":[4.1027E4,4.0872E4,1.55E2,7.079E3,3.3793E4,9E0,1.46E2,6.268E3,8.11E2,2.7105E4,6.688E3,2E0,7E0,9.8E1,4.8E1,2.501E3,3.767E3,1.38E2,6.73E2,2.2021E4,5.084E3,6.405E3,2.83E2,4E0,3E0,6.3E1,3.5E1,2.5E1,2.3E1,1.343E3,1.158E3,3.151E3,6.16E2,3.4E1,1.04E2,2.89E2,3.84E2,5.655E3,1.6366E4,1.044E3,4.04E3,6.26E3,1.45E2,8.4E1,1.99E2,1E0,2E0,2E1,3E0,1.313E3,3E1,5.02E2,6.56E2,3.6E2,2.791E3,2.66E2,3.5E2,2.4E1,1E1,7.6E1,2.8E1,6.1E1,2.28E2,1.52E2,2.32E2,1.683E3,3.972E3,8.291E3,8.075E3,7.76E2,2.68E2,1.326E3,2.714E3,6.204E3,5.6E1,1.18E2,2.7E1,3.9E1,4.5E1,1.96E2,3E0,1E0,1E0,2E0,1E0],"tree_param":{"num_deleted":"0","num_feature":"7","num_nodes":"85","size_leaf_vector":"1"}},{"base_weights":[-1.4637328E-4,1.28737E-1,-8.280172E-1,1.6836913E-1,-2.2578254E-1,-6.101684E-1,-1.3109828E0,1.9558671E-1,9.130526E-2,-7.692154E-2,-2.671467E-1,-4.5577088E-1,-8.1660396E-1,-1.2382684E0,-1.7091068E0,1.939531E-1,2.2615589E-1,6.255958E-2,1.15719505E-1,-4.2206347E-2,-1.4003578E-1,-2.026837E-1,-2.7126566E-1,-4.0937406E-1,-4.8509675E-1,-4.2338174E-2,-7.645515E-1,-1.3945005E0,-1.1655486E0,-1.9610462E0,-7.632584E-2,1.8615636E-1,1.9814155E-1,2.2391546E-1,1.7026518E-2,1.07693754E-1,3.4329023E-2,9.318884E-2,1.4055958E-1,-7.444194E-2,-2.6154421E-2,6.297266E-2,-1.4325272E-1,-2.0676045E-1,-2.516803E-2,-1.8353133E-1,-2.7237955E-1,-4.104892E-1,-7.006344E-2,-1.2540645E-2,-4.8667684E-1,-6.49747E-1,-7.7970237E-1,-9.94876E-1,-1.4067158E0,-1.3316036E0,-1.0685695E0,-9.26042E-2,-1.1984551E-1,9.034994E-3,9.6597355E-3,9.662956E-3,1.0152931E-2,1.0027601E-2,1.1672387E-2,5.566736E-3,3.2619447E-3,2.6972648E-3,6.943466E-4,5.0613196E-3,3.0870691E-3,5.8289007E-3,7.942735E-3,-2.954814E-3,-6.531428E-3,-1.1359702E-3,-3.9817616E-3,6.503885E-3,-1.256164E-3,-6.4438614E-3,-8.032626E-3,-1.0431403E-2,2.6282002E-3,2.3461017E-3,-4.443438E-3,-7.3999586E-3,-1.4469698E-2,-1.36295995E-2,9.059732E-5,-1.9240579E-2,-2.1054555E-2,5.331572E-4,-5.0263344E-3,-2.4448225E-2,-1.7933747E-2,-3.3068325E-2,-1.7507687E-2,-4.005574E-2,-3.334479E-2,-5.574971E-2,-2.9441351E-2,-7.073934E-2,-4.8093177E-2,-6.850015E-2,-5.5678654E-2,-5.6805342E-2,-4.0571E-2],"categories":[],"categories_nodes":[],"categories_segments":[],"categories_sizes":[],"default_left":[0,0,0,0,0,0,0,0,0,0,0,0,0,0,0,0,0,0,0,0,0,0,0,0,0,0,0,0,0,0,0,0,0,0,0,0,0,0,0,0,0,0,0,0,0,0,0,0,0,0,0,0,0,0,0,0,0,0,0,0,0,0,0,0,0,0,0,0,0,0,0,0,0,0,0,0,0,0,0,0,0,0,0,0,0,0,0,0,0,0,0,0,0,0,0,0,0,0,0,0,0,0,0,0,0,0,0],"id":4,"left_children":[1,3,5,7,9,11,13,15,17,19,21,23,25,27,29,31,33,35,37,39,41,43,45,47,49,-1,51,53,55,57,-1,59,61,63,-1,65,67,69,71,73,75,77,79,81,83,85,87,89,91,-1,93,95,97,99,101,103,105,-1,-1,-1,-1,-1,-1,-1,-1,-1,-1,-1,-1,-1,-1,-1,-1,-1,-1,-1,-1,-1,-1,-1,-1,-1,-1,-1,-1,-1,-1,-1,-1,-1,-1,-1,-1,-1,-1,-1,-1,-1,-1,-1,-1,-1,-1,-1,-1,-1,-1],"loss_changes":[4.384893E3,4.9966888E2,5.8166187E2,6.7070435E1,2.1998718E1,1.212876E2,4.7676758E1,1.1364746E0,5.852829E0,1.7008967E0,6.87912E-1,2.7757263E0,1.9145508E0,1.4939209E1,9.104858E0,6.960449E-1,2.2945404E-1,4.8852644E0,2.5132217E0,2.5884438E-1,1.8926716E-1,1.1927128E-1,2.0675659E-1,2.939911E-1,3.7176514E-1,0E0,5.526428E-1,8.362427E-1,1.4696899E1,6.4245605E-1,0E0,2.6696777E-1,3.109131E-1,2.1442032E-1,0E0,2.2089195E-1,9.4640684E-1,5.927925E-1,9.2259216E-1,1.3627136E-1,6.02839E-2,3.2826394E-2,4.7330856E-2,9.233093E-2,2.7130846E-2,9.258485E-2,1.5145874E-1,6.93512E-2,1.0908702E-2,0E0,2.1231079E-1,3.6460876E-2,7.5320435E-1,1.7261696E-1,2.2613525E-1,1.5303345E0,1.0141052E1,0E0,0E0,0E0,0E0,0E0,0E0,0E0,0E0,0E0,0E0,0E0,0E0,0E0,0E0,0E0,0E0,0E0,0E0,0E0,0E0,0E0,0E0,0E0,0E0,0E0,0E0,0E0,0E0,0E0,0E0,0E0,0E0,0E0,0E0,0E0,0E0,0E0,0E0,0E0,0E0,0E0,0E0,0E0,0E0,0E0,0E0,0E0,0E0,0E0,0E0],"parents":[2147483647,0,0,1,1,2,2,3,3,4,4,5,5,6,6,7,7,8,8,9,9,10,10,11,11,12,12,13,13,14,14,15,15,16,16,17,17,18,18,19,19,20,20,21,21,22,22,23,23,24,24,26,26,27,27,28,28,29,29,31,31,32,32,33,33,35,35,36,36,37,37,38,38,39,39,40,40,41,41,42,42,43,43,44,44,45,45,46,46,47,47,48,48,50,50,51,51,52,52,53,53,54,54,55,55,56,56],"right_children":[2,4,6,8,10,12,14,16,18,20,22,24,26,28,30,32,34,36,38,40,42,44,46,48,50,-1,52,54,56,58,-1,60,62,64,-1,66,68,70,72,74,76,78,80,82,84,86,88,90,92,-1,94,96,98,100,102,104,106,-1,-1,-1,-1,-1,-1,-1,-1,-1,-1,-1,-1,-1,-1,-1,-1,-1,-1,-1,-1,-1,-1,-1,-1,-1,-1,-1,-1,-1,-1,-1,-1,-1,-1,-1,-1,-1,-1,-1,-1,-1,-1,-1,-1,-1,-1,-1,-1,-1,-1],"split_conditions":[4.5E-1,2.02E-1,6.5E-1,7E-2,3.2E-1,5.7E-1,8E-1,2.6881105E-1,1E0,3E-1,4E-1,5E-1,1.4531745E-1,1E0,1.5951844E-1,1E0,5.1644737E-1,1.5E-1,2E-1,1E0,1E0,1E1,2.3514522E-2,3.832258E-1,2.0246586E-2,-4.2338174E-2,1.5951844E-1,7E-1,2E0,1E0,-7.632584E-2,1E0,9.681881E-2,1E0,1.7026518E-2,8E0,1E0,1.5E-1,1.078454E-1,1.3635828E-1,9E0,3E0,1.06617644E-1,2.6881105E-1,1.0838334E-2,1E0,5.1644737E-1,7.498341E-2,4.0563127E-1,-1.2540645E-2,3.3832976E-1,1.5825623E-1,3.3832976E-1,1.3635828E-1,9E0,4.389313E-1,2.5857168E-1,-9.26042E-2,-1.1984551E-1,9.034994E-3,9.6597355E-3,9.662956E-3,1.0152931E-2,1.0027601E-2,1.1672387E-2,5.566736E-3,3.2619447E-3,2.6972648E-3,6.943466E-4,5.0613196E-3,3.0870691E-3,5.8289007E-3,7.942735E-3,-2.954814E-3,-6.531428E-3,-1.1359702E-3,-3.9817616E-3,6.503885E-3,-1.256164E-3,-6.4438614E-3,-8.032626E-3,-1.0431403E-2,2.6282002E-3,2.3461017E-3,-4.443438E-3,-7.3999586E-3,-1.4469698E-2,-1.36295995E-2,9.059732E-5,-1.9240579E-2,-2.1054555E-2,5.331572E-4,-5.0263344E-3,-2.4448225E-2,-1.7933747E-2,-3.3068325E-2,-1.7507687E-2,-4.005574E-2,-3.334479E-2,-5.574971E-2,-2.9441351E-2,-7.073934E-2,-4.8093177E-2,-6.850015E-2,-5.5678654E-2,-5.6805342E-2,-4.0571E-2],"split_indices":[0,0,0,0,0,0,0,2,5,0,0,0,2,5,2,5,2,0,0,4,4,3,2,2,2,0,2,0,3,4,0,4,2,5,0,3,4,0,2,2,3,3,2,2,2,4,2,2,2,0,2,2,2,2,3,2,2,0,0,0,0,0,0,0,0,0,0,0,0,0,0,0,0,0,0,0,0,0,0,0,0,0,0,0,0,0,0,0,0,0,0,0,0,0,0,0,0,0,0,0,0,0,0,0,0,0,0],"split_type":[0,0,0,0,0,0,0,0,0,0,0,0,0,0,0,0,0,0,0,0,0,0,0,0,0,0,0,0,0,0,0,0,0,0,0,0,0,0,0,0,0,0,0,0,0,0,0,0,0,0,0,0,0,0,0,0,0,0,0,0,0,0,0,0,0,0,0,0,0,0,0,0,0,0,0,0,0,0,0,0,0,0,0,0,0,0,0,0,0,0,0,0,0,0,0,0,0,0,0,0,0,0,0,0,0,0,0],"sum_hessian":[4.1094E4,3.5559E4,5.535E3,3.1984E4,3.575E3,3.816E3,1.719E3,2.3635E4,8.349E3,7.78E2,2.797E3,2.185E3,1.631E3,1.457E3,2.62E2,2.2443E4,1.192E3,3.836E3,4.513E3,5.03E2,2.75E2,1.71E2,2.626E3,8.52E2,1.333E3,1.023E3,6.08E2,4.57E2,1E3,1.06E2,1.56E2,7.859E3,1.4584E4,1.172E3,2E1,1.475E3,2.361E3,2.369E3,2.144E3,1.66E2,3.37E2,4E0,2.71E2,1.67E2,4E0,3.5E1,2.591E3,8.49E2,3E0,1E1,1.323E3,7.6E1,5.32E2,1.6E1,4.41E2,3.64E2,6.36E2,8.9E1,1.7E1,4.442E3,3.417E3,7.338E3,7.246E3,3.46E2,8.26E2,1.357E3,1.18E2,1.204E3,1.157E3,1.885E3,4.84E2,9.31E2,1.213E3,1.32E2,3.4E1,3.18E2,1.9E1,2E0,2E0,1.53E2,1.18E2,1.66E2,1E0,2E0,2E0,2.8E1,7E0,2.589E3,2E0,2.59E2,5.9E2,1E0,2E0,1.297E3,2.6E1,7.2E1,4E0,4.42E2,9E1,1.1E1,5E0,4.31E2,1E1,3.05E2,5.9E1,5.01E2,1.35E2],"tree_param":{"num_deleted":"0","num_feature":"7","num_nodes":"107","size_leaf_vector":"1"}},{"base_weights":[-3.4544154E-4,1.21721834E-1,-7.922149E-1,1.593122E-1,-2.1347457E-1,-5.857037E-1,-1.2486377E0,1.8527648E-1,8.670972E-2,-7.301241E-2,-2.5248808E-1,-4.3536857E-1,-7.819101E-1,-1.1829387E0,-1.6037592E0,1.8352406E-1,2.1227586E-1,9.7219534E-2,5.33451E-2,-3.989898E-2,-1.3460523E-1,-1.8764965E-1,-2.5695974E-1,-3.9092696E-1,-4.630543E-1,-7.897191E-1,-6.4360493E-1,-1.3132734E0,-1.0976175E0,-1.8000616E0,-7.236364E-2,1.865941E-1,1.7115785E-1,2.3872346E-1,2.0206779E-1,1.1053516E-1,6.4309776E-2,1.0589852E-1,1.3196894E-2,-7.2038785E-2,-2.3617199E-2,4.8024002E-2,-1.3819169E-1,-1.6131093E-1,-2.5191388E-1,-2.5794294E-1,-6.862067E-2,-3.9402583E-1,-2.2941539E-1,-1.8336573E-1,-4.648413E-1,-8.287621E-1,-7.709451E-1,-1.4284435E-2,-6.739301E-1,-6.68136E-2,-5.463011E-2,-1.1452928E0,-8.21236E-1,-9.209791E-2,-6.220581E-2,8.9000845E-3,9.447195E-3,8.624356E-3,7.6971776E-3,1.1280603E-2,1.6207775E-2,1.0250102E-2,9.220457E-3,4.4025714E-3,6.77972E-3,4.6298616E-3,2.5022484E-3,5.2163387E-3,7.572864E-3,-9.2413335E-4,1.3191848E-3,-3.1440966E-3,-5.354304E-3,-6.918978E-3,-9.860111E-4,4.512519E-3,-1.2142919E-3,-5.8729257E-3,-8.0839135E-3,-8.319057E-3,2.2532798E-3,-1.6688136E-2,-1.0313272E-2,-1.2806048E-2,-1.5518665E-2,-1.6209852E-3,-1.4385854E-2,-1.9425519E-2,-2.3284044E-2,8.6714345E-4,-1.5057826E-2,-5.8687204E-3,-1.129411E-2,-2.3116907E-2,-3.188822E-2,-4.0348742E-2,-4.7283243E-2,-1.21573815E-2,-3.861071E-2,-3.4748178E-2,-1.923067E-2,-6.038508E-2,-5.019582E-2,-3.931254E-2,-6.69324E-2],"categories":[],"categories_nodes":[],"categories_segments":[],"categories_sizes":[],"default_left":[0,0,0,0,0,0,0,0,0,0,0,0,0,0,0,0,0,0,0,0,0,0,0,0,0,0,0,0,0,0,0,0,0,0,0,0,0,0,0,0,0,0,0,0,0,0,0,0,0,0,0,0,0,0,0,0,0,0,0,0,0,0,0,0,0,0,0,0,0,0,0,0,0,0,0,0,0,0,0,0,0,0,0,0,0,0,0,0,0,0,0,0,0,0,0,0,0,0,0,0,0,0,0,0,0,0,0,0,0,0,0],"id":5,"left_children":[1,3,5,7,9,11,13,15,17,19,21,23,25,27,29,31,33,35,37,39,41,43,45,47,49,51,53,55,57,59,-1,61,63,65,67,69,71,73,75,77,79,81,83,85,87,89,91,93,95,97,99,101,103,-1,105,-1,-1,107,109,-1,-1,-1,-1,-1,-1,-1,-1,-1,-1,-1,-1,-1,-1,-1,-1,-1,-1,-1,-1,-1,-1,-1,-1,-1,-1,-1,-1,-1,-1,-1,-1,-1,-1,-1,-1,-1,-1,-1,-1,-1,-1,-1,-1,-1,-1,-1,-1,-1,-1,-1,-1],"loss_changes":[3.972491E3,4.4870044E2,5.166421E2,6.0340027E1,1.9659958E1,1.1118677E2,3.797583E1,1.0769043E0,2.9529495E0,1.5895567E0,7.6651E-1,2.4557495E0,1.2618408E0,1.4638428E1,5.5045776E0,8.0908203E-1,3.3809662E-1,2.8035965E0,4.266982E0,2.651782E-1,1.8544912E-1,2.7250147E-1,4.685669E-1,3.2453156E-1,5.7199097E-1,4.9505615E-1,8.1687546E-1,1.4176636E0,1.0654907E1,3.4039307E-1,0E0,3.244629E-1,7.4523926E-2,3.670807E-1,1.6029358E-2,2.5600967E0,7.41869E-1,4.6925545E-2,4.800669E-1,4.8144042E-2,1.4932814E-1,2.05121E-2,1.1151314E-1,1.4771128E-1,1.254425E-1,1.7002869E-1,1.09644815E-1,1.399765E-1,3.2387173E-1,1.5443861E-3,2.7044678E-1,4.8233032E-1,5.2160645E-1,0E0,2.4995804E-1,0E0,0E0,5.387207E0,1.3550186E0,0E0,0E0,0E0,0E0,0E0,0E0,0E0,0E0,0E0,0E0,0E0,0E0,0E0,0E0,0E0,0E0,0E0,0E0,0E0,0E0,0E0,0E0,0E0,0E0,0E0,0E0,0E0,0E0,0E0,0E0,0E0,0E0,0E0,0E0,0E0,0E0,0E0,0E0,0E0,0E0,0E0,0E0,0E0,0E0,0E0,0E0,0E0,0E0,0E0,0E0,0E0,0E0],"parents":[2147483647,0,0,1,1,2,2,3,3,4,4,5,5,6,6,7,7,8,8,9,9,10,10,11,11,12,12,13,13,14,14,15,15,16,16,17,17,18,18,19,19,20,20,21,21,22,22,23,23,24,24,25,25,26,26,27,27,28,28,29,29,31,31,32,32,33,33,34,34,35,35,36,36,37,37,38,38,39,39,40,40,41,41,42,42,43,43,44,44,45,45,46,46,47,47,48,48,49,49,50,50,51,51,52,52,54,54,57,57,58,58],"right_children":[2,4,6,8,10,12,14,16,18,20,22,24,26,28,30,32,34,36,38,40,42,44,46,48,50,52,54,56,58,60,-1,62,64,66,68,70,72,74,76,78,80,82,84,86,88,90,92,94,96,98,100,102,104,-1,106,-1,-1,108,110,-1,-1,-1,-1,-1,-1,-1,-1,-1,-1,-1,-1,-1,-1,-1,-1,-1,-1,-1,-1,-1,-1,-1,-1,-1,-1,-1,-1,-1,-1,-1,-1,-1,-1,-1,-1,-1,-1,-1,-1,-1,-1,-1,-1,-1,-1,-1,-1,-1,-1,-1,-1],"split_conditions":[4.5E-1,2.02E-1,6.5E-1,7E-2,3.2E-1,5.7E-1,8E-1,2.5454545E-1,1E0,3E-1,4E-1,5E-1,3.3832976E-1,2E0,1.5951844E-1,1E0,2E0,1E0,1.5E-1,1E0,1E0,1.1420613E-1,4.0563127E-1,2.804349E-1,2.0246586E-2,8.6796425E-2,3.5070702E-1,4.389313E-1,2.7454546E-1,9E0,-7.236364E-2,6.284856E-2,2E-3,4.0563127E-1,1E0,2E-1,1.5E-1,2.8674722E-1,6.920732E-2,1.3725637E-1,2.3514522E-2,3E0,1.035E-1,1.1340852E-1,1.3545151E-1,4.02E-1,5E0,8E0,2E0,1E0,1.1E1,8.165332E-2,6E-1,-1.4284435E-2,1E0,-6.68136E-2,-5.463011E-2,5E0,1E0,-9.209791E-2,-6.220581E-2,8.9000845E-3,9.447195E-3,8.624356E-3,7.6971776E-3,1.1280603E-2,1.6207775E-2,1.0250102E-2,9.220457E-3,4.4025714E-3,6.77972E-3,4.6298616E-3,2.5022484E-3,5.2163387E-3,7.572864E-3,-9.2413335E-4,1.3191848E-3,-3.1440966E-3,-5.354304E-3,-6.918978E-3,-9.860111E-4,4.512519E-3,-1.2142919E-3,-5.8729257E-3,-8.0839135E-3,-8.319057E-3,2.2532798E-3,-1.6688136E-2,-1.0313272E-2,-1.2806048E-2,-1.5518665E-2,-1.6209852E-3,-1.4385854E-2,-1.9425519E-2,-2.3284044E-2,8.6714345E-4,-1.5057826E-2,-5.8687204E-3,-1.129411E-2,-2.3116907E-2,-3.188822E-2,-4.0348742E-2,-4.7283243E-2,-1.21573815E-2,-3.861071E-2,-3.4748178E-2,-1.923067E-2,-6.038508E-2,-5.019582E-2,-3.931254E-2,-6.69324E-2],"split_indices":[0,0,0,0,0,0,0,2,4,0,0,0,2,3,2,6,3,6,0,4,4,2,2,2,2,2,2,2,2,3,0,2,0,2,4,0,0,2,2,2,2,3,2,2,2,0,3,3,3,6,3,2,0,0,4,0,0,3,6,0,0,0,0,0,0,0,0,0,0,0,0,0,0,0,0,0,0,0,0,0,0,0,0,0,0,0,0,0,0,0,0,0,0,0,0,0,0,0,0,0,0,0,0,0,0,0,0,0,0,0,0],"split_type":[0,0,0,0,0,0,0,0,0,0,0,0,0,0,0,0,0,0,0,0,0,0,0,0,0,0,0,0,0,0,0,0,0,0,0,0,0,0,0,0,0,0,0,0,0,0,0,0,0,0,0,0,0,0,0,0,0,0,0,0,0,0,0,0,0,0,0,0,0,0,0,0,0,0,0,0,0,0,0,0,0,0,0,0,0,0,0,0,0,0,0,0,0,0,0,0,0,0,0,0,0,0,0,0,0,0,0,0,0,0,0],"sum_hessian":[4.1095E4,3.5607E4,5.488E3,3.2017E4,3.59E3,3.78E3,1.708E3,2.3582E4,8.435E3,7.81E2,2.809E3,2.142E3,1.638E3,1.445E3,2.63E2,2.2152E4,1.43E3,6.413E3,2.022E3,5.09E2,2.72E2,1.84E2,2.625E3,8.28E2,1.314E3,1.546E3,9.2E1,5.66E2,8.79E2,1.12E2,1.51E2,1.7735E4,4.417E3,3.92E2,1.038E3,4.564E3,1.849E3,8.75E2,1.147E3,1.7E2,3.39E2,5E0,2.67E2,1.33E2,5.1E1,2.611E3,1.4E1,8.11E2,1.7E1,9E0,1.305E3,4.88E2,1.058E3,8E0,8.4E1,5.08E2,5.8E1,7.47E2,1.32E2,1.02E2,1E1,3.825E3,1.391E4,4.092E3,3.25E2,3.43E2,4.9E1,8.81E2,1.57E2,2.408E3,2.156E3,6.18E2,1.231E3,8.49E2,2.6E1,3.37E2,8.1E2,1.37E2,3.3E1,1E1,3.29E2,3E0,2E0,1.45E2,1.22E2,1.3E2,3E0,1.6E1,3.5E1,2.529E3,8.2E1,1.3E1,1E0,7.59E2,5.2E1,4E0,1.3E1,5E0,4E0,1.29E3,1.5E1,4.18E2,7E1,3E0,1.055E3,7.7E1,7E0,5.13E2,2.34E2,1.26E2,6E0],"tree_param":{"num_deleted":"0","num_feature":"7","num_nodes":"111","size_leaf_vector":"1"}},{"base_weights":[-7.2593265E-4,1.15575105E-1,-7.5070345E-1,1.5001547E-1,-2.1334991E-1,-5.563998E-1,-1.1808248E0,1.7545792E-1,8.001854E-2,-8.18667E-2,-2.4139352E-1,-4.1222253E-1,-7.492128E-1,-1.1199776E0,-1.5381392E0,1.7889825E-1,1.611455E-1,5.204821E-2,1.05045825E-1,-4.307509E-2,-1.235016E-1,-1.7677973E-1,-2.4584591E-1,-3.6649117E-1,-4.40684E-1,-7.8769374E-1,-7.1805984E-1,-1.2621194E0,-1.0529708E0,-1.1189913E-1,-1.489487E0,1.7296354E-1,1.8442355E-1,1.914587E-1,1.603408E-1,9.844685E-2,2.5848025E-2,8.3830796E-2,1.295135E-1,-2.338284E-2,-9.617597E-2,-1.266964E-1,4.61725E-2,-1.8115772E-1,1.4432603E-2,-2.4962607E-1,-2.1597207E-1,-3.673251E-1,-1.0078713E-1,-2.5468633E-1,-4.4303808E-1,-8.185649E-1,-7.4822474E-1,-1.8878926E-2,-7.1915114E-1,-1.2691213E0,-4.291983E-2,-1.1430184E0,-8.9764017E-1,-8.59949E-2,-7.016472E-2,8.270262E-3,8.889331E-3,9.11174E-3,1.0127595E-2,9.87775E-3,6.184273E-3,7.9600075E-3,9.089517E-3,3.958637E-3,5.4966444E-3,1.4807172E-3,-1.1576025E-3,4.7220984E-3,2.2343125E-3,5.8375117E-3,8.151384E-3,2.6737985E-3,-1.514559E-3,-1.973201E-3,-5.8628907E-3,-5.5087986E-3,-7.422164E-3,4.343299E-3,-1.1738156E-3,-9.140929E-3,2.8203267E-3,-4.641253E-3,3.2226641E-3,-1.2365721E-2,-1.5559608E-2,-1.1053305E-2,-5.9383404E-3,-1.7478848E-2,-1.9038128E-2,4.981497E-4,-7.051242E-3,-7.4875923E-3,-1.4073319E-2,-2.2017656E-2,-3.0143226E-2,-1.9412821E-2,-4.104487E-2,-3.7475757E-2,-8.253581E-3,-2.5462994E-2,-3.6070447E-2,-2.6233593E-2,-6.356273E-2,-6.067103E-2,-4.8421882E-2,-2.987117E-2,-4.8385043E-2],"categories":[],"categories_nodes":[],"categories_segments":[],"categories_sizes":[],"default_left":[0,0,0,0,0,0,0,0,0,0,0,0,0,0,0,0,0,0,0,0,0,0,0,0,0,0,0,0,0,0,0,0,0,0,0,0,0,0,0,0,0,0,0,0,0,0,0,0,0,0,0,0,0,0,0,0,0,0,0,0,0,0,0,0,0,0,0,0,0,0,0,0,0,0,0,0,0,0,0,0,0,0,0,0,0,0,0,0,0,0,0,0,0,0,0,0,0,0,0,0,0,0,0,0,0,0,0,0,0,0,0,0,0],"id":6,"left_children":[1,3,5,7,9,11,13,15,17,19,21,23,25,27,29,31,33,35,37,39,41,43,45,47,49,51,53,55,57,-1,59,61,63,65,67,69,71,73,75,77,79,81,83,85,87,89,91,93,95,97,99,101,103,-1,105,107,-1,109,111,-1,-1,-1,-1,-1,-1,-1,-1,-1,-1,-1,-1,-1,-1,-1,-1,-1,-1,-1,-1,-1,-1,-1,-1,-1,-1,-1,-1,-1,-1,-1,-1,-1,-1,-1,-1,-1,-1,-1,-1,-1,-1,-1,-1,-1,-1,-1,-1,-1,-1,-1,-1,-1,-1],"loss_changes":[3.570044E3,4.0145023E2,4.5858252E2,5.7111694E1,1.2365768E1,1.0496692E2,3.5433594E1,1.1295166E0,5.9818115E0,9.5081043E-1,7.528534E-1,2.661621E0,1.3751831E0,1.2614868E1,5.0426025E0,5.897217E-1,8.074951E-2,4.9099092E0,2.331768E0,3.198192E-1,1.6034126E-1,1.5497065E-1,2.3822021E-1,1.4865875E-1,4.7039795E-1,2.5750732E-1,6.512451E-2,2.2216797E-1,1.2975098E1,0E0,2.2138062E0,3.043518E-1,3.5205078E-1,2.2253036E-2,8.010864E-2,3.140726E-1,4.775629E-1,1.0009727E0,8.7667465E-1,1.21618316E-1,9.460676E-2,8.423996E-2,1.9044809E-2,8.0543995E-2,3.2808386E-2,2.4894714E-1,1.21305466E-1,6.604004E-2,1.9230355E-2,1.1242747E-2,2.9840088E-1,7.272339E-2,1.2083435E-1,0E0,6.008911E-2,5.407715E-2,0E0,6.5681763E0,7.2463074E0,0E0,0E0,0E0,0E0,0E0,0E0,0E0,0E0,0E0,0E0,0E0,0E0,0E0,0E0,0E0,0E0,0E0,0E0,0E0,0E0,0E0,0E0,0E0,0E0,0E0,0E0,0E0,0E0,0E0,0E0,0E0,0E0,0E0,0E0,0E0,0E0,0E0,0E0,0E0,0E0,0E0,0E0,0E0,0E0,0E0,0E0,0E0,0E0,0E0,0E0,0E0,0E0,0E0,0E0],"parents":[2147483647,0,0,1,1,2,2,3,3,4,4,5,5,6,6,7,7,8,8,9,9,10,10,11,11,12,12,13,13,14,14,15,15,16,16,17,17,18,18,19,19,20,20,21,21,22,22,23,23,24,24,25,25,26,26,27,27,28,28,30,30,31,31,32,32,33,33,34,34,35,35,36,36,37,37,38,38,39,39,40,40,41,41,42,42,43,43,44,44,45,45,46,46,47,47,48,48,49,49,50,50,51,51,52,52,54,54,55,55,57,57,58,58],"right_children":[2,4,6,8,10,12,14,16,18,20,22,24,26,28,30,32,34,36,38,40,42,44,46,48,50,52,54,56,58,-1,60,62,64,66,68,70,72,74,76,78,80,82,84,86,88,90,92,94,96,98,100,102,104,-1,106,108,-1,110,112,-1,-1,-1,-1,-1,-1,-1,-1,-1,-1,-1,-1,-1,-1,-1,-1,-1,-1,-1,-1,-1,-1,-1,-1,-1,-1,-1,-1,-1,-1,-1,-1,-1,-1,-1,-1,-1,-1,-1,-1,-1,-1,-1,-1,-1,-1,-1,-1,-1,-1,-1,-1,-1,-1],"split_conditions":[4.5E-1,2.7E-1,6.5E-1,7E-2,3.2E-1,5.7E-1,8E-1,1E0,1E0,3E-1,4E-1,5E-1,1.06617644E-1,1E0,1E0,9.681881E-2,2.3514522E-2,1.5E-1,2E-1,1E0,1E0,1E1,2.1035072E-1,3.832258E-1,2.3514522E-2,3E0,6E-1,9E0,3E0,-1.1189913E-1,1.1275445E-1,3E0,2.6324236E-1,2E-3,2.5857168E-1,7.754847E-2,2.02E-1,1.5E-1,1.757858E-1,2E0,6.920732E-2,1.06617644E-1,3E0,3.3832976E-1,3.5E-1,4.02E-1,4.0563127E-1,8.936404E-2,4.0563127E-1,1.6324535E-2,1.1E1,6E-1,1.0597449E-1,-1.8878926E-2,1.078454E-1,1.0838334E-2,-4.291983E-2,3.1770834E-1,4E0,-8.59949E-2,-7.016472E-2,8.270262E-3,8.889331E-3,9.11174E-3,1.0127595E-2,9.87775E-3,6.184273E-3,7.9600075E-3,9.089517E-3,3.958637E-3,5.4966444E-3,1.4807172E-3,-1.1576025E-3,4.7220984E-3,2.2343125E-3,5.8375117E-3,8.151384E-3,2.6737985E-3,-1.514559E-3,-1.973201E-3,-5.8628907E-3,-5.5087986E-3,-7.422164E-3,4.343299E-3,-1.1738156E-3,-9.140929E-3,2.8203267E-3,-4.641253E-3,3.2226641E-3,-1.2365721E-2,-1.5559608E-2,-1.1053305E-2,-5.9383404E-3,-1.7478848E-2,-1.9038128E-2,4.981497E-4,-7.051242E-3,-7.4875923E-3,-1.4073319E-2,-2.2017656E-2,-3.0143226E-2,-1.9412821E-2,-4.104487E-2,-3.7475757E-2,-8.253581E-3,-2.5462994E-2,-3.6070447E-2,-2.6233593E-2,-6.356273E-2,-6.067103E-2,-4.8421882E-2,-2.987117E-2,-4.8385043E-2],"split_indices":[0,0,0,0,0,0,0,6,5,0,0,0,2,5,5,2,2,0,0,5,6,3,2,2,2,3,0,3,3,0,2,3,2,0,2,2,0,0,2,3,2,2,3,2,0,0,2,2,2,2,3,0,2,0,2,2,0,2,3,0,0,0,0,0,0,0,0,0,0,0,0,0,0,0,0,0,0,0,0,0,0,0,0,0,0,0,0,0,0,0,0,0,0,0,0,0,0,0,0,0,0,0,0,0,0,0,0,0,0,0,0,0,0],"split_type":[0,0,0,0,0,0,0,0,0,0,0,0,0,0,0,0,0,0,0,0,0,0,0,0,0,0,0,0,0,0,0,0,0,0,0,0,0,0,0,0,0,0,0,0,0,0,0,0,0,0,0,0,0,0,0,0,0,0,0,0,0,0,0,0,0,0,0,0,0,0,0,0,0,0,0,0,0,0,0,0,0,0,0,0,0,0,0,0,0,0,0,0,0,0,0,0,0,0,0,0,0,0,0,0,0,0,0,0,0,0,0,0,0],"sum_hessian":[4.0928E4,3.5434E4,5.494E3,3.2076E4,3.358E3,3.786E3,1.708E3,2.3524E4,8.552E3,5.91E2,2.767E3,2.168E3,1.618E3,1.463E3,2.45E2,1.8956E4,4.568E3,4.04E3,4.512E3,3.07E2,2.84E2,1.81E2,2.586E3,8.37E2,1.331E3,7.13E2,9.05E2,4.63E2,1E3,1.3E1,2.32E2,9.155E3,9.801E3,1.12E2,4.456E3,1.457E3,2.583E3,2.419E3,2.093E3,2.25E2,8.2E1,2.79E2,5E0,1.77E2,4E0,2.289E3,2.97E2,8.34E2,3E0,1.8E1,1.313E3,3.89E2,3.24E2,4E0,9.01E2,4.53E2,1E1,6.29E2,3.71E2,5.8E1,1.74E2,3.58E3,5.575E3,8.755E3,1.046E3,1.01E2,1.1E1,4.239E3,2.17E2,5.47E2,9.1E2,2.399E3,1.84E2,1.902E3,5.17E2,1.519E3,5.74E2,1.8E1,2.07E2,2.3E1,5.9E1,1.62E2,1.17E2,3E0,2E0,1.76E2,1E0,1E0,3E0,2.211E3,7.8E1,2.81E2,1.6E1,3.71E2,4.63E2,1E0,2E0,5E0,1.3E1,1.295E3,1.8E1,3E0,3.86E2,3.23E2,1E0,1.2E1,8.89E2,2E0,4.51E2,4.44E2,1.85E2,7.2E1,2.99E2],"tree_param":{"num_deleted":"0","num_feature":"7","num_nodes":"113","size_leaf_vector":"1"}},{"base_weights":[7.2047353E-4,1.1026807E-1,-7.11309E-1,1.4320104E-1,-2.0211796E-1,-5.272416E-1,-1.1219693E0,1.6740896E-1,7.652925E-2,-8.944755E-2,-2.3142426E-1,-3.8961497E-1,-7.1258175E-1,-1.0580673E0,-1.483178E0,1.7066224E-1,1.5397228E-1,4.8567843E-2,1.0103993E-1,-4.5264084E-2,-1.2570961E-1,-2.2963732E-1,-2.841706E-1,-3.539018E-1,-4.1275477E-1,-3.6137205E-2,-6.8137836E-1,-1.129928E0,-9.326532E-1,-7.159819E-2,-1.1257694E-1,1.7210995E-1,1.6440985E-1,1.5549058E-1,1.3603985E-1,9.1287315E-2,2.4044199E-2,7.863763E-2,1.2613186E-1,-7.9774156E-2,-3.3328876E-2,-1.1596583E-1,-1.4552186E-1,-2.2344324E-1,-2.4585803E-1,-1.4310586E-2,-2.8689427E-3,-3.3431175E-1,-1.8091023E-2,-4.107973E-1,-5.306542E-1,-3.588922E-2,-3.2259393E-2,-6.1348464E-2,-1.0829426E0,-1.1402986E0,-8.44022E-1,8.527823E-3,8.8297995E-3,8.148279E-3,8.553739E-3,7.7503915E-3,8.980452E-3,8.299927E-3,6.6444837E-3,4.611168E-3,-6.0234935E-4,1.8006852E-3,5.6994555E-4,4.371881E-3,2.20675E-3,6.2542567E-3,9.924088E-3,-2.04149E-3,-6.48958E-3,-1.9305771E-3,2.2923318E-4,2.219606E-3,-5.96228E-3,-7.6499083E-3,-1.6911089E-3,-1.1087831E-2,-1.4636799E-2,-1.27463555E-2,-1.1036396E-2,-1.7039327E-2,-1.3866359E-2,-2.1506907E-2,-1.9983191E-2,-2.9859332E-2,-1.7039545E-2,-5.679177E-2,-5.031115E-2,-3.5889845E-2,-5.8216035E-2,-2.825273E-2,-4.541172E-2],"categories":[],"categories_nodes":[],"categories_segments":[],"categories_sizes":[],"default_left":[0,0,0,0,0,0,0,0,0,0,0,0,0,0,0,0,0,0,0,0,0,0,0,0,0,0,0,0,0,0,0,0,0,0,0,0,0,0,0,0,0,0,0,0,0,0,0,0,0,0,0,0,0,0,0,0,0,0,0,0,0,0,0,0,0,0,0,0,0,0,0,0,0,0,0,0,0,0,0,0,0,0,0,0,0,0,0,0,0,0,0,0,0,0,0,0,0],"id":7,"left_children":[1,3,5,7,9,11,13,15,17,19,21,23,25,27,29,31,33,35,37,39,41,43,45,47,49,-1,51,53,55,-1,-1,57,59,61,63,65,67,69,71,73,75,77,79,81,83,-1,-1,85,-1,87,89,-1,-1,-1,91,93,95,-1,-1,-1,-1,-1,-1,-1,-1,-1,-1,-1,-1,-1,-1,-1,-1,-1,-1,-1,-1,-1,-1,-1,-1,-1,-1,-1,-1,-1,-1,-1,-1,-1,-1,-1,-1,-1,-1,-1,-1],"loss_changes":[3.2016348E3,3.6599673E2,4.131084E2,5.192688E1,1.1182831E1,9.6167114E1,3.75083E1,1.0057373E0,5.871311E0,1.1190429E0,1.8847656E-1,1.6488647E0,1.8066406E-2,1.1942017E1,6.692322E0,1.4361572E-1,1.0441589E-1,4.1956873E0,2.5578308E0,1.2832063E-1,5.7447433E-2,2.0718384E-1,2.2461891E-2,1.260376E-2,8.482361E-2,0E0,8.103943E-2,2.8295898E0,8.810028E0,0E0,0E0,7.723999E-2,6.713867E-3,2.1583557E-2,1.2670517E-2,1.4242744E-1,3.8509786E-1,7.2969437E-1,1.3821793E-1,1.5248024E-1,4.7844768E-2,1.43615E-1,9.7542524E-2,1.5702057E-1,1.05773926E-1,0E0,0E0,1.7910004E-3,0E0,1.06918335E-1,2.3861885E-2,0E0,0E0,0E0,1.3851929E0,7.4754333E-1,6.222168E0,0E0,0E0,0E0,0E0,0E0,0E0,0E0,0E0,0E0,0E0,0E0,0E0,0E0,0E0,0E0,0E0,0E0,0E0,0E0,0E0,0E0,0E0,0E0,0E0,0E0,0E0,0E0,0E0,0E0,0E0,0E0,0E0,0E0,0E0,0E0,0E0,0E0,0E0,0E0,0E0],"parents":[2147483647,0,0,1,1,2,2,3,3,4,4,5,5,6,6,7,7,8,8,9,9,10,10,11,11,12,12,13,13,14,14,15,15,16,16,17,17,18,18,19,19,20,20,21,21,22,22,23,23,24,24,26,26,27,27,28,28,31,31,32,32,33,33,34,34,35,35,36,36,37,37,38,38,39,39,40,40,41,41,42,42,43,43,44,44,47,47,49,49,50,50,54,54,55,55,56,56],"right_children":[2,4,6,8,10,12,14,16,18,20,22,24,26,28,30,32,34,36,38,40,42,44,46,48,50,-1,52,54,56,-1,-1,58,60,62,64,66,68,70,72,74,76,78,80,82,84,-1,-1,86,-1,88,90,-1,-1,-1,92,94,96,-1,-1,-1,-1,-1,-1,-1,-1,-1,-1,-1,-1,-1,-1,-1,-1,-1,-1,-1,-1,-1,-1,-1,-1,-1,-1,-1,-1,-1,-1,-1,-1,-1,-1,-1,-1,-1,-1,-1,-1],"split_conditions":[4.5E-1,2.7E-1,6.5E-1,7E-2,3.7E-1,6E-1,8E-1,1E0,1E0,3E-1,4.02E-1,5E-1,1E0,3E0,1E0,1E0,2E-3,1.5E-1,2E-1,1E0,3.2E-1,1E0,9E0,4.7E-1,1.1E1,-3.6137205E-2,3E0,1E0,1E0,-7.159819E-2,-1.1257694E-1,5E0,6E0,1E1,2E0,1.2E1,1E0,1.5E-1,1.1E1,4E0,7E0,1E0,8E0,1E1,5E0,-1.4310586E-2,-2.8689427E-3,7E0,-1.8091023E-2,1E0,1.3E1,-3.588922E-2,-3.2259393E-2,-6.1348464E-2,2E0,7E-1,4E0,8.527823E-3,8.8297995E-3,8.148279E-3,8.553739E-3,7.7503915E-3,8.980452E-3,8.299927E-3,6.6444837E-3,4.611168E-3,-6.0234935E-4,1.8006852E-3,5.6994555E-4,4.371881E-3,2.20675E-3,6.2542567E-3,9.924088E-3,-2.04149E-3,-6.48958E-3,-1.9305771E-3,2.2923318E-4,2.219606E-3,-5.96228E-3,-7.6499083E-3,-1.6911089E-3,-1.1087831E-2,-1.4636799E-2,-1.27463555E-2,-1.1036396E-2,-1.7039327E-2,-1.3866359E-2,-2.1506907E-2,-1.9983191E-2,-2.9859332E-2,-1.7039545E-2,-5.679177E-2,-5.031115E-2,-3.5889845E-2,-5.8216035E-2,-2.825273E-2,-4.541172E-2],"split_indices":[0,0,0,0,0,0,0,6,5,0,0,0,4,3,4,4,0,0,0,4,0,4,3,0,3,0,3,5,5,0,0,3,3,3,3,3,4,0,3,3,3,4,3,3,3,0,0,3,0,5,3,0,0,0,3,0,3,0,0,0,0,0,0,0,0,0,0,0,0,0,0,0,0,0,0,0,0,0,0,0,0,0,0,0,0,0,0,0,0,0,0,0,0,0,0,0,0],"split_type":[0,0,0,0,0,0,0,0,0,0,0,0,0,0,0,0,0,0,0,0,0,0,0,0,0,0,0,0,0,0,0,0,0,0,0,0,0,0,0,0,0,0,0,0,0,0,0,0,0,0,0,0,0,0,0,0,0,0,0,0,0,0,0,0,0,0,0,0,0,0,0,0,0,0,0,0,0,0,0,0,0,0,0,0,0,0,0,0,0,0,0,0,0,0,0,0,0],"sum_hessian":[4.1044E4,3.5572E4,5.472E3,3.218E4,3.392E3,3.78E3,1.692E3,2.3607E4,8.573E3,7.01E2,2.691E3,2.171E3,1.609E3,1.441E3,2.51E2,1.8996E4,4.611E3,4.006E3,4.567E3,3.17E2,3.84E2,2.608E3,8.3E1,8.6E2,1.311E3,1.197E3,4.12E2,9.11E2,5.3E2,2.38E2,1.3E1,1.5403E4,3.593E3,4.244E3,3.67E2,1.46E3,2.546E3,2.415E3,2.152E3,8E1,2.37E2,2.62E2,1.22E2,1.898E3,7.1E2,8.2E1,1E0,2.6E2,6E2,1.294E3,1.7E1,1.96E2,2.16E2,2.89E2,6.22E2,1.55E2,3.75E2,1.147E4,3.933E3,2.974E3,6.19E2,4.168E3,7.6E1,3E1,3.37E2,1.447E3,1.3E1,1.307E3,1.239E3,1.923E3,4.92E2,2.124E3,2.8E1,4.6E1,3.4E1,2.08E2,2.9E1,5E0,2.57E2,1.14E2,8E0,1.857E3,4.1E1,5.15E2,1.95E2,2.29E2,3.1E1,4.59E2,8.35E2,1.1E1,6E0,3.6E2,2.62E2,1E1,1.45E2,7.2E1,3.03E2],"tree_param":{"num_deleted":"0","num_feature":"7","num_nodes":"97","size_leaf_vector":"1"}},{"base_weights":[2.909217E-4,1.0377016E-1,-6.75265E-1,1.3603678E-1,-1.8313584E-1,-4.9903527E-1,-1.0701755E0,1.5811373E-1,7.399386E-2,-6.3403666E-2,-2.1628498E-1,-3.6872718E-1,-6.6810787E-1,-1.0077596E0,-1.4016075E0,1.4977825E-1,1.6257305E-1,4.9118582E-2,9.517391E-2,-3.8475458E-2,-1.1134207E-1,-1.4355148E-1,-2.1949373E-1,-3.337149E-1,-3.907736E-1,-3.534379E-2,-6.3564104E-1,-1.1158645E0,-9.3987733E-1,-1.3544674E0,-1.00342564E-1,1.5079808E-1,1.2748969E-1,1.6103552E-1,1.8997042E-1,8.371808E-2,2.7645444E-2,7.605028E-2,1.16998725E-1,-6.709606E-2,-2.4465807E-2,4.950477E-2,-1.1274282E-1,7.9292804E-4,-1.5505496E-1,-2.1821272E-1,-2.8860262E-1,-3.3761814E-1,-2.1824402E-1,-3.8749292E-1,-2.9604215E-2,-6.459329E-1,-5.0977576E-1,-5.7108264E-2,-4.4691127E-2,-9.9222237E-1,-7.0060015E-1,-7.8159116E-2,-6.448617E-2,7.4912603E-3,8.722501E-3,8.505329E-3,6.1595566E-3,7.917563E-3,8.43192E-3,9.394976E-3,1.4056221E-2,3.3402902E-3,4.6838517E-3,2.1707155E-3,5.52E-4,4.209177E-3,2.0265265E-3,3.0381177E-3,6.149824E-3,-1.6039889E-3,-5.8080405E-3,-6.795822E-3,-1.0721843E-3,3.9025687E-3,-1.8971079E-4,-8.870848E-3,-5.448701E-3,-5.761625E-3,3.348995E-3,-9.130475E-3,-6.337024E-3,-1.0635418E-2,-1.1650255E-2,-9.836501E-3,-1.6335547E-2,-1.5516105E-2,-1.7488783E-2,-1.1790675E-2,-2.2544537E-3,-1.9799229E-2,-1.7945496E-2,-3.2983895E-2,-2.9993353E-2,-2.6590312E-2,-1.4701252E-2,-5.2137654E-2,-4.3417133E-2,-6.004736E-2,-3.1659573E-2],"categories":[],"categories_nodes":[],"categories_segments":[],"categories_sizes":[],"default_left":[0,0,0,0,0,0,0,0,0,0,0,0,0,0,0,0,0,0,0,0,0,0,0,0,0,0,0,0,0,0,0,0,0,0,0,0,0,0,0,0,0,0,0,0,0,0,0,0,0,0,0,0,0,0,0,0,0,0,0,0,0,0,0,0,0,0,0,0,0,0,0,0,0,0,0,0,0,0,0,0,0,0,0,0,0,0,0,0,0,0,0,0,0,0,0,0,0,0,0,0,0,0,0,0,0],"id":8,"left_children":[1,3,5,7,9,11,13,15,17,19,21,23,25,27,29,31,33,35,37,39,41,43,45,47,49,-1,51,53,55,57,-1,59,61,63,65,67,69,71,73,75,77,79,81,83,85,87,89,91,93,95,-1,97,99,-1,-1,101,103,-1,-1,-1,-1,-1,-1,-1,-1,-1,-1,-1,-1,-1,-1,-1,-1,-1,-1,-1,-1,-1,-1,-1,-1,-1,-1,-1,-1,-1,-1,-1,-1,-1,-1,-1,-1,-1,-1,-1,-1,-1,-1,-1,-1,-1,-1,-1,-1],"loss_changes":[2.8703413E3,3.2964697E2,3.7903687E2,4.382892E1,1.427475E1,8.287854E1,3.3382324E1,8.530884E-1,4.4220047E0,9.302206E-1,6.264038E-1,1.5160522E0,1.6161499E0,9.364502E0,4.814087E0,1.6807556E-1,6.1672974E-1,2.8699684E0,1.8847046E0,2.0525616E-1,6.573796E-2,2.0269918E-1,1.758728E-1,3.0085754E-1,6.311188E-1,0E0,8.404846E-1,2.144287E0,1.0301758E1,1.335144E0,0E0,1.5504456E-1,4.6276093E-2,2.7035522E-1,1.00271225E-1,2.4301529E-1,6.2455416E-1,6.9599533E-1,7.065735E-1,2.8662658E-1,1.1429793E-1,4.8606587E-3,4.5258045E-2,8.451197E-2,6.501794E-2,1.664505E-1,9.67772E-2,1.576004E-1,8.0634594E-2,1.6976929E-1,0E0,1.3043213E-1,1.9061089E-1,0E0,0E0,3.5889893E0,4.669731E0,0E0,0E0,0E0,0E0,0E0,0E0,0E0,0E0,0E0,0E0,0E0,0E0,0E0,0E0,0E0,0E0,0E0,0E0,0E0,0E0,0E0,0E0,0E0,0E0,0E0,0E0,0E0,0E0,0E0,0E0,0E0,0E0,0E0,0E0,0E0,0E0,0E0,0E0,0E0,0E0,0E0,0E0,0E0,0E0,0E0,0E0,0E0,0E0],"parents":[2147483647,0,0,1,1,2,2,3,3,4,4,5,5,6,6,7,7,8,8,9,9,10,10,11,11,12,12,13,13,14,14,15,15,16,16,17,17,18,18,19,19,20,20,21,21,22,22,23,23,24,24,26,26,27,27,28,28,29,29,31,31,32,32,33,33,34,34,35,35,36,36,37,37,38,38,39,39,40,40,41,41,42,42,43,43,44,44,45,45,46,46,47,47,48,48,49,49,51,51,52,52,55,55,56,56],"right_children":[2,4,6,8,10,12,14,16,18,20,22,24,26,28,30,32,34,36,38,40,42,44,46,48,50,-1,52,54,56,58,-1,60,62,64,66,68,70,72,74,76,78,80,82,84,86,88,90,92,94,96,-1,98,100,-1,-1,102,104,-1,-1,-1,-1,-1,-1,-1,-1,-1,-1,-1,-1,-1,-1,-1,-1,-1,-1,-1,-1,-1,-1,-1,-1,-1,-1,-1,-1,-1,-1,-1,-1,-1,-1,-1,-1,-1,-1,-1,-1,-1,-1,-1,-1,-1,-1,-1,-1],"split_conditions":[4.5E-1,2.02E-1,6.5E-1,7E-2,3.2E-1,5.7E-1,8E-1,1E0,1E0,3E-1,3.7E-1,5E-1,1.0467896E-1,2E0,1E0,2E-3,2.6881105E-1,1.5E-1,2E-1,1E0,1E0,3.4614373E-2,1E1,2.5454545E-1,1.1E1,-3.534379E-2,3.6621535E-1,4.389313E-1,2.5031447E-1,1.071987E-1,-1.00342564E-1,2.804349E-1,2E0,1.3817568E-1,5.1644737E-1,7.754847E-2,1E0,1.7E-1,5.6041665E-2,4E0,2.3514522E-2,1.1275445E-1,4.0163804E-2,3.5E-1,8.62949E-2,1E0,1E0,4.7E-1,3.832258E-1,1.5567967E-1,-2.9604215E-2,1E0,1E0,-5.7108264E-2,-4.4691127E-2,5E0,1E0,-7.8159116E-2,-6.448617E-2,7.4912603E-3,8.722501E-3,8.505329E-3,6.1595566E-3,7.917563E-3,8.43192E-3,9.394976E-3,1.4056221E-2,3.3402902E-3,4.6838517E-3,2.1707155E-3,5.52E-4,4.209177E-3,2.0265265E-3,3.0381177E-3,6.149824E-3,-1.6039889E-3,-5.8080405E-3,-6.795822E-3,-1.0721843E-3,3.9025687E-3,-1.8971079E-4,-8.870848E-3,-5.448701E-3,-5.761625E-3,3.348995E-3,-9.130475E-3,-6.337024E-3,-1.0635418E-2,-1.1650255E-2,-9.836501E-3,-1.6335547E-2,-1.5516105E-2,-1.7488783E-2,-1.1790675E-2,-2.2544537E-3,-1.9799229E-2,-1.7945496E-2,-3.2983895E-2,-2.9993353E-2,-2.6590312E-2,-1.4701252E-2,-5.2137654E-2,-4.3417133E-2,-6.004736E-2,-3.1659573E-2],"split_indices":[0,0,0,0,0,0,0,5,5,0,0,0,2,3,4,0,2,0,0,4,4,2,3,2,3,0,2,2,2,2,0,2,3,2,2,2,4,0,2,3,2,2,2,0,2,4,5,0,2,2,0,4,4,0,0,3,5,0,0,0,0,0,0,0,0,0,0,0,0,0,0,0,0,0,0,0,0,0,0,0,0,0,0,0,0,0,0,0,0,0,0,0,0,0,0,0,0,0,0,0,0,0,0,0,0],"split_type":[0,0,0,0,0,0,0,0,0,0,0,0,0,0,0,0,0,0,0,0,0,0,0,0,0,0,0,0,0,0,0,0,0,0,0,0,0,0,0,0,0,0,0,0,0,0,0,0,0,0,0,0,0,0,0,0,0,0,0,0,0,0,0,0,0,0,0,0,0,0,0,0,0,0,0,0,0,0,0,0,0,0,0,0,0,0,0,0,0,0,0,0,0,0,0,0,0,0,0,0,0,0,0,0,0],"sum_hessian":[4.1058E4,3.5605E4,5.453E3,3.2006E4,3.599E3,3.772E3,1.681E3,2.3605E4,8.401E3,7.81E2,2.818E3,2.132E3,1.64E3,1.418E3,2.63E2,8.239E3,1.5366E4,3.865E3,4.536E3,5.15E2,2.66E2,1.21E2,2.697E3,8.3E2,1.302E3,7.38E2,9.02E2,5.41E2,8.77E2,2.47E2,1.6E1,7.873E3,3.66E2,1.4556E4,8.1E2,1.479E3,2.386E3,2.42E3,2.116E3,1.68E2,3.47E2,2E0,2.64E2,9E0,1.12E2,2.652E3,4.5E1,8.01E2,2.9E1,1.284E3,1.8E1,8.3E2,7.2E1,4.8E2,6.1E1,7.17E2,1.6E2,5.3E1,1.94E2,7.569E3,3.04E2,3E1,3.36E2,1.0774E4,3.782E3,7.95E2,1.5E1,5.51E2,9.28E2,1.223E3,1.163E3,1.968E3,4.52E2,2.05E2,1.911E3,9.9E1,6.9E1,8E0,3.39E2,1E0,1E0,1.2E1,2.52E2,3E0,6E0,5.4E1,5.8E1,1.944E3,7.08E2,1.5E1,3E1,2.55E2,5.46E2,2.6E1,3E0,9.8E2,3.04E2,6.29E2,2.01E2,6.4E1,8E0,5.04E2,2.13E2,1.7E1,1.43E2],"tree_param":{"num_deleted":"0","num_feature":"7","num_nodes":"105","size_leaf_vector":"1"}},{"base_weights":[-6.042419E-4,2.6108553E-3,-4.2165595E-1,-4.7750164E-2,1.3033386E-2,2.2422297E-2,-4.7624472E-1,-2.8743668E-2,-2.0664263E-1,2.0573173E-2,-1.7766163E-2,1.1799524E-1,-6.427045E-2,-3.2084683E-1,-6.1347944E-1,-6.0265597E-2,-7.0533743E-3,-4.020177E-2,-2.4502797E-1,2.8234957E-2,-1.3622631E-2,-1.9479651E-2,2.3186624E-2,1.0030203E-2,-6.688825E-2,-1.8579442E-2,1.657604E-2,-3.5309562E-1,-8.19229E-2,-2.5068033E-2,-7.7030957E-1,4.8047826E-2,-6.4167686E-2,4.572145E-3,-6.420244E-2,-8.7449215E-2,7.716883E-2,-2.1587227E-1,-3.3222216E-1,1.0765992E-2,3.420404E-2,-6.3608545E-3,-8.608173E-2,-1.8838864E-2,-1.03497535E-1,5.515078E-2,-1.889733E-2,-3.9439206E-3,-1.7343592E-4,-1.1991625E-2,5.2638473E-3,-3.1161228E-1,-2.9644538E-2,3.683606E-2,-2.5684085E-1,-3.9676584E-2,-2.5262314E-1,3.372665E-4,7.981385E-3,-2.5039397E-3,-4.1676275E-3,2.9121158E-3,-1.1961292E-4,-5.151124E-3,-1.8849651E-3,-1.7391116E-3,-1.3227336E-2,4.402038E-3,5.892524E-4,-8.265159E-3,-1.1762838E-2,-1.8286293E-2,-1.3294366E-2,-3.7425043E-4,9.240303E-4,1.2164912E-3,1.9085053E-3,-1.4510793E-3,3.2143787E-4,-6.0202307E-3,1.0862913E-3,-2.5748776E-3,-8.895697E-4,-6.095535E-3,3.9618937E-3,1.8406798E-3,3.805279E-3,-5.3316504E-3,9.3906414E-4,-1.1936143E-3,1.0353968E-3,-1.7963754E-2,-1.0125549E-2,2.58129E-3,7.95349E-4,-1.6894003E-2,5.734854E-3,2.898343E-4,-2.5697066E-2],"categories":[],"categories_nodes":[],"categories_segments":[],"categories_sizes":[],"default_left":[0,0,0,0,0,0,0,0,0,0,0,0,0,0,0,0,0,0,0,0,0,0,0,0,0,0,0,0,0,0,0,0,0,0,0,0,0,0,0,0,0,0,0,0,0,0,0,0,0,0,0,0,0,0,0,0,0,0,0,0,0,0,0,0,0,0,0,0,0,0,0,0,0,0,0,0,0,0,0,0,0,0,0,0,0,0,0,0,0,0,0,0,0,0,0,0,0,0,0],"id":9,"left_children":[1,3,5,7,9,11,13,15,17,19,21,23,25,27,29,31,33,35,37,39,41,43,45,-1,47,-1,49,51,53,-1,55,57,59,61,63,65,67,69,71,73,75,77,79,81,83,85,87,-1,-1,89,-1,91,-1,93,95,-1,97,-1,-1,-1,-1,-1,-1,-1,-1,-1,-1,-1,-1,-1,-1,-1,-1,-1,-1,-1,-1,-1,-1,-1,-1,-1,-1,-1,-1,-1,-1,-1,-1,-1,-1,-1,-1,-1,-1,-1,-1,-1,-1],"loss_changes":[5.5556503E1,2.137884E1,7.5498466E0,2.1085663E1,7.8369293E0,2.9757544E-1,5.710457E0,4.2653027E0,4.756262E0,7.1032286E0,4.661839E-1,2.7305913E-1,4.7822616E-1,9.881344E-1,2.1810074E0,1.077878E0,2.4565344E0,7.886585E-1,1.4688644E0,2.3090878E0,2.6108923E0,3.4104943E-1,3.6020476E-1,0E0,4.288856E-3,0E0,4.1806087E-2,9.691582E-1,3.626033E-1,0E0,5.0881577E-1,4.0908217E-1,6.593962E-1,1.1487675E0,6.391492E-1,9.3284494E-1,2.8107211E-2,4.0908623E-1,2.3612595E-1,7.9452884E-1,6.4551544E-1,1.3078631E0,1.6751363E0,2.154212E-1,1.7116743E-1,5.5604607E-2,3.8547072E-1,0E0,0E0,5.544747E-3,0E0,4.524498E-1,0E0,2.5836816E-3,2.4951777E-1,0E0,2.7309832E-1,0E0,0E0,0E0,0E0,0E0,0E0,0E0,0E0,0E0,0E0,0E0,0E0,0E0,0E0,0E0,0E0,0E0,0E0,0E0,0E0,0E0,0E0,0E0,0E0,0E0,0E0,0E0,0E0,0E0,0E0,0E0,0E0,0E0,0E0,0E0,0E0,0E0,0E0,0E0,0E0,0E0,0E0],"parents":[2147483647,0,0,1,1,2,2,3,3,4,4,5,5,6,6,7,7,8,8,9,9,10,10,11,11,12,12,13,13,14,14,15,15,16,16,17,17,18,18,19,19,20,20,21,21,22,22,24,24,26,26,27,27,28,28,30,30,31,31,32,32,33,33,34,34,35,35,36,36,37,37,38,38,39,39,40,40,41,41,42,42,43,43,44,44,45,45,46,46,49,49,51,51,53,53,54,54,56,56],"right_children":[2,4,6,8,10,12,14,16,18,20,22,24,26,28,30,32,34,36,38,40,42,44,46,-1,48,-1,50,52,54,-1,56,58,60,62,64,66,68,70,72,74,76,78,80,82,84,86,88,-1,-1,90,-1,92,-1,94,96,-1,98,-1,-1,-1,-1,-1,-1,-1,-1,-1,-1,-1,-1,-1,-1,-1,-1,-1,-1,-1,-1,-1,-1,-1,-1,-1,-1,-1,-1,-1,-1,-1,-1,-1,-1,-1,-1,-1,-1,-1,-1,-1,-1],"split_conditions":[4.389313E-1,2E0,1E0,2.5857168E-1,1E0,1E0,5.1644737E-1,1E0,1E0,1.6809116E-1,2.6881105E-1,4E0,2E0,4E0,2E0,3.335392E-2,1.8668163E-1,3.3832976E-1,3.6621535E-1,1E0,3.3832976E-1,2.5857168E-1,3.1770834E-1,1.0030203E-2,9E0,-1.8579442E-2,4E0,3E0,6E0,-2.5068033E-2,6E0,3.0050505E-2,1.0413534E-1,5.9111953E-2,2.1035072E-1,3.1770834E-1,4.0563127E-1,2.804349E-1,4.0563127E-1,3E0,3E0,3E0,5E0,2.5893921E-2,7E0,4E0,3E0,-3.9439206E-3,-1.7343592E-4,3E0,5.2638473E-3,2E0,-2.9644538E-2,5E0,8E0,-3.9676584E-2,9E0,3.372665E-4,7.981385E-3,-2.5039397E-3,-4.1676275E-3,2.9121158E-3,-1.1961292E-4,-5.151124E-3,-1.8849651E-3,-1.7391116E-3,-1.3227336E-2,4.402038E-3,5.892524E-4,-8.265159E-3,-1.1762838E-2,-1.8286293E-2,-1.3294366E-2,-3.7425043E-4,9.240303E-4,1.2164912E-3,1.9085053E-3,-1.4510793E-3,3.2143787E-4,-6.0202307E-3,1.0862913E-3,-2.5748776E-3,-8.895697E-4,-6.095535E-3,3.9618937E-3,1.8406798E-3,3.805279E-3,-5.3316504E-3,9.3906414E-4,-1.1936143E-3,1.0353968E-3,-1.7963754E-2,-1.0125549E-2,2.58129E-3,7.95349E-4,-1.6894003E-2,5.734854E-3,2.898343E-4,-2.5697066E-2],"split_indices":[2,3,5,2,4,4,2,5,5,2,2,3,3,3,3,2,2,2,2,5,2,2,2,0,3,0,3,3,3,0,3,2,2,2,2,2,2,2,2,3,3,3,3,2,3,3,3,0,0,3,0,3,0,3,3,0,3,0,0,0,0,0,0,0,0,0,0,0,0,0,0,0,0,0,0,0,0,0,0,0,0,0,0,0,0,0,0,0,0,0,0,0,0,0,0,0,0,0,0],"split_type":[0,0,0,0,0,0,0,0,0,0,0,0,0,0,0,0,0,0,0,0,0,0,0,0,0,0,0,0,0,0,0,0,0,0,0,0,0,0,0,0,0,0,0,0,0,0,0,0,0,0,0,0,0,0,0,0,0,0,0,0,0,0,0,0,0,0,0,0,0,0,0,0,0,0,0,0,0,0,0,0,0,0,0,0,0,0,0,0,0,0,0,0,0,0,0,0,0,0,0],"sum_hessian":[4.1038E4,4.0728E4,3.1E2,6.983E3,3.3745E4,3.4E1,2.76E2,6.238E3,7.45E2,2.7109E4,6.636E3,1.6E1,1.8E1,1.31E2,1.45E2,2.542E3,3.696E3,1.4E2,6.05E2,2.2147E4,4.962E3,6.37E3,2.66E2,1.1E1,5E0,3E0,1.5E1,1.15E2,1.6E1,8.7E1,5.8E1,8.8E1,2.454E3,3.072E3,6.24E2,1E2,4E1,4.56E2,1.49E2,5.641E3,1.6506E4,4.511E3,4.51E2,6.323E3,4.7E1,1.51E2,1.15E2,4E0,1E0,1.2E1,3E0,1E2,1.5E1,1E1,6E0,5.5E1,3E0,6.5E1,2.3E1,1.417E3,1.037E3,3.52E2,2.72E3,2.52E2,3.72E2,7.8E1,2.2E1,3.4E1,6E0,1.29E2,3.27E2,9.6E1,5.3E1,1.676E3,3.965E3,4.732E3,1.1774E4,1.627E3,2.884E3,3.42E2,1.09E2,1.95E2,6.128E3,4.3E1,4E0,8.2E1,6.9E1,3.4E1,8.1E1,9E0,3E0,6.8E1,3.2E1,5E0,5E0,5E0,1E0,2E0,1E0],"tree_param":{"num_deleted":"0","num_feature":"7","num_nodes":"99","size_leaf_vector":"1"}},{"base_weights":[6.102174E-4,3.740186E-3,-4.1526848E-1,-4.99072E-2,1.4806659E-2,7.408793E-3,-4.6294266E-1,-3.4189064E-2,-2.1358809E-1,2.2623027E-2,-1.7087769E-2,9.952975E-2,-7.9729095E-2,-3.1313497E-1,-5.769026E-1,-7.178175E-2,-9.435955E-3,-2.7257985E-2,-2.5190705E-1,2.9476477E-2,-8.697985E-3,-1.8762033E-2,2.2604188E-2,1.0068885E-2,-1.0377978E-1,-1.2527072E-1,9.95989E-2,-3.3932012E-1,-1.3298343E-1,-2.5964646E-2,-6.618388E-1,1.1887251E-1,-7.451595E-2,5.697125E-3,-7.7521265E-2,-9.97531E-2,5.762935E-2,-2.1426015E-1,-1.7474672E-2,1.443205E-2,3.4621306E-2,3.0372327E-2,-1.9509804E-2,-1.7601369E-2,-7.063989E-2,5.234218E-2,-9.814089E-4,-1.2318293E-1,-1.6910005E-4,-5.0760426E-2,-1.748084E-1,7.2048404E-3,-8.4737095E-4,-2.8023034E-1,-4.0939685E-2,-6.475067E-2,-2.8379193E-1,-3.3984926E-2,-2.4634379E-1,7.846474E-3,9.0565544E-4,-2.9299203E-3,-4.6085166E-3,1.0229861E-3,-8.6968625E-4,-8.098831E-3,-3.3530255E-3,-1.6520863E-2,-3.0425887E-3,-5.764262E-3,3.994943E-3,-1.2212297E-2,-7.7835456E-3,3.986217E-5,1.0070318E-3,2.183676E-3,1.4005908E-3,1.8111352E-3,-1.5597994E-3,-6.116479E-4,-5.3062243E-3,-9.2214294E-4,1.9680138E-3,-4.7773267E-3,2.634277E-3,1.6087268E-3,4.1823955E-3,-1.5844511E-3,2.9925476E-3,-2.5333317E-3,-7.731912E-3,6.4560636E-3,-5.113046E-3,-1.5720636E-2,-1.4081635E-3,-1.5329115E-2,-1.1196735E-2,-5.2752723E-3,-1.3045379E-3,-2.0532738E-2,5.5914824E-3,2.8017312E-4,-2.505464E-2],"categories":[],"categories_nodes":[],"categories_segments":[],"categories_sizes":[],"default_left":[0,0,0,0,0,0,0,0,0,0,0,0,0,0,0,0,0,0,0,0,0,0,0,0,0,0,0,0,0,0,0,0,0,0,0,0,0,0,0,0,0,0,0,0,0,0,0,0,0,0,0,0,0,0,0,0,0,0,0,0,0,0,0,0,0,0,0,0,0,0,0,0,0,0,0,0,0,0,0,0,0,0,0,0,0,0,0,0,0,0,0,0,0,0,0,0,0,0,0,0,0,0,0],"id":10,"left_children":[1,3,5,7,9,11,13,15,17,19,21,23,25,27,29,31,33,35,37,39,41,43,45,-1,47,49,51,53,55,-1,57,59,61,63,65,67,69,71,-1,73,75,77,79,81,83,85,87,89,-1,91,93,-1,-1,95,-1,97,99,-1,101,-1,-1,-1,-1,-1,-1,-1,-1,-1,-1,-1,-1,-1,-1,-1,-1,-1,-1,-1,-1,-1,-1,-1,-1,-1,-1,-1,-1,-1,-1,-1,-1,-1,-1,-1,-1,-1,-1,-1,-1,-1,-1,-1,-1],"loss_changes":[5.3322567E1,2.4138878E1,6.1695747E0,1.7881088E1,8.403244E0,2.6480663E-1,4.5141716E0,5.9035716E0,4.3413773E0,5.811449E0,4.4135237E-1,3.5220543E-1,1.5131393E-1,5.256691E-1,4.1474915E-1,1.3219824E0,3.9435546E0,6.5190995E-1,1.7803993E0,1.7187309E0,2.0539818E0,3.8213158E-1,1.887248E-1,0E0,1.1271596E-2,4.2801604E-2,2.3186337E-2,2.745408E0,1.5655562E-1,0E0,2.703762E-1,1.3520294E-1,6.926403E-1,1.067995E0,6.040306E-1,4.913625E-1,1.9789653E-1,6.0674095E-1,0E0,4.4068837E-1,9.8903275E-1,3.807786E-1,2.398815E0,2.9929852E-1,4.319895E-1,7.244083E-2,2.8396714E-1,3.570117E-3,0E0,7.805203E-2,1.5492345E-1,0E0,0E0,7.2277546E-2,0E0,1.7729774E-2,2.968717E-1,0E0,2.595411E-1,0E0,0E0,0E0,0E0,0E0,0E0,0E0,0E0,0E0,0E0,0E0,0E0,0E0,0E0,0E0,0E0,0E0,0E0,0E0,0E0,0E0,0E0,0E0,0E0,0E0,0E0,0E0,0E0,0E0,0E0,0E0,0E0,0E0,0E0,0E0,0E0,0E0,0E0,0E0,0E0,0E0,0E0,0E0,0E0],"parents":[2147483647,0,0,1,1,2,2,3,3,4,4,5,5,6,6,7,7,8,8,9,9,10,10,11,11,12,12,13,13,14,14,15,15,16,16,17,17,18,18,19,19,20,20,21,21,22,22,24,24,25,25,26,26,27,27,28,28,30,30,31,31,32,32,33,33,34,34,35,35,36,36,37,37,39,39,40,40,41,41,42,42,43,43,44,44,45,45,46,46,47,47,49,49,50,50,53,53,55,55,56,56,58,58],"right_children":[2,4,6,8,10,12,14,16,18,20,22,24,26,28,30,32,34,36,38,40,42,44,46,-1,48,50,52,54,56,-1,58,60,62,64,66,68,70,72,-1,74,76,78,80,82,84,86,88,90,-1,92,94,-1,-1,96,-1,98,100,-1,102,-1,-1,-1,-1,-1,-1,-1,-1,-1,-1,-1,-1,-1,-1,-1,-1,-1,-1,-1,-1,-1,-1,-1,-1,-1,-1,-1,-1,-1,-1,-1,-1,-1,-1,-1,-1,-1,-1,-1,-1,-1,-1,-1,-1],"split_conditions":[4.389313E-1,2E0,1E0,2.7454546E-1,1E0,1E0,5.1644737E-1,1E0,1E0,1.6949894E-1,2.6881105E-1,4E0,4E0,4E0,2E0,2.3514522E-2,1.887439E-1,1E0,3.6621535E-1,1E0,1E0,2.3728813E-1,3.093736E-1,1.0068885E-2,9E0,5.1644737E-1,5E0,3E0,7E0,-2.5964646E-2,6E0,1E0,9.5167965E-2,1.2204424E-1,1.9540988E-1,2.8674722E-1,2.804349E-1,3.2627118E-1,-1.7474672E-2,3E0,7.894497E-2,8E0,3.5070702E-1,2.1924832E-1,6E0,2.9399702E-1,3.6621535E-1,5E0,-1.6910005E-4,2E0,2E0,7.2048404E-3,-8.4737095E-4,2E0,-4.0939685E-2,5E0,8E0,-3.3984926E-2,9E0,7.846474E-3,9.0565544E-4,-2.9299203E-3,-4.6085166E-3,1.0229861E-3,-8.6968625E-4,-8.098831E-3,-3.3530255E-3,-1.6520863E-2,-3.0425887E-3,-5.764262E-3,3.994943E-3,-1.2212297E-2,-7.7835456E-3,3.986217E-5,1.0070318E-3,2.183676E-3,1.4005908E-3,1.8111352E-3,-1.5597994E-3,-6.116479E-4,-5.3062243E-3,-9.2214294E-4,1.9680138E-3,-4.7773267E-3,2.634277E-3,1.6087268E-3,4.1823955E-3,-1.5844511E-3,2.9925476E-3,-2.5333317E-3,-7.731912E-3,6.4560636E-3,-5.113046E-3,-1.5720636E-2,-1.4081635E-3,-1.5329115E-2,-1.1196735E-2,-5.2752723E-3,-1.3045379E-3,-2.0532738E-2,5.5914824E-3,2.8017312E-4,-2.505464E-2],"split_indices":[2,3,5,2,4,4,2,5,5,2,2,3,3,3,3,2,2,4,2,5,5,2,2,0,3,2,3,3,3,0,3,4,2,2,2,2,2,2,0,3,2,3,2,2,3,2,2,3,0,3,3,0,0,3,0,3,3,0,3,0,0,0,0,0,0,0,0,0,0,0,0,0,0,0,0,0,0,0,0,0,0,0,0,0,0,0,0,0,0,0,0,0,0,0,0,0,0,0,0,0,0,0,0],"split_type":[0,0,0,0,0,0,0,0,0,0,0,0,0,0,0,0,0,0,0,0,0,0,0,0,0,0,0,0,0,0,0,0,0,0,0,0,0,0,0,0,0,0,0,0,0,0,0,0,0,0,0,0,0,0,0,0,0,0,0,0,0,0,0,0,0,0,0,0,0,0,0,0,0,0,0,0,0,0,0,0,0,0,0,0,0,0,0,0,0,0,0,0,0,0,0,0,0,0,0,0,0,0,0],"sum_hessian":[4.0962E4,4.0657E4,3.05E2,6.952E3,3.3705E4,3.1E1,2.74E2,6.344E3,6.08E2,2.7071E4,6.634E3,1.5E1,1.6E1,1.2E2,1.54E2,2.518E3,3.826E3,1.04E2,5.04E2,2.2211E4,4.86E3,6.366E3,2.68E2,1E1,5E0,1.3E1,3E0,1.04E2,1.6E1,9.6E1,5.8E1,3.5E1,2.483E3,3.131E3,6.95E2,5.6E1,4.8E1,3.66E2,1.38E2,5.661E3,1.655E4,1.053E3,3.807E3,6.228E3,1.38E2,1.18E2,1.5E2,4E0,1E0,6E0,7E0,2E0,1E0,9.4E1,1E1,1.2E1,4E0,5.5E1,3E0,2.5E1,1E1,1.308E3,1.175E3,1.91E3,1.221E3,7.5E1,6.2E2,7E0,4.9E1,5E0,4.3E1,2.4E2,1.26E2,1.671E3,3.99E3,6.982E3,9.568E3,9.62E2,9.1E1,3.513E3,2.94E2,6.138E3,9E1,1.15E2,2.3E1,7.3E1,4.5E1,1E2,5E1,2E0,2E0,1E0,5E0,3E0,4E0,6.1E1,3.3E1,5E0,7E0,3E0,1E0,2E0,1E0],"tree_param":{"num_deleted":"0","num_feature":"7","num_nodes":"103","size_leaf_vector":"1"}},{"base_weights":[1.7682385E-3,9.971988E-2,-6.3198835E-1,1.2842827E-1,-1.7951638E-1,-4.705283E-1,-9.9101883E-1,1.5057665E-1,6.7693174E-2,-7.525271E-2,-2.0671974E-1,-3.5373017E-1,-6.325938E-1,-9.420088E-1,-1.291498E0,1.5308118E-1,1.4021222E-1,4.4454947E-2,8.8249326E-2,-3.026111E-2,-1.1032359E-1,-2.0189019E-1,-2.2592771E-1,-3.2023585E-1,-3.7689203E-1,-6.2414217E-1,-6.726957E-1,-1.0720885E0,-8.824868E-1,-1.8042154E0,-6.291327E-2,1.5231928E-1,7.970019E-3,1.3775541E-1,1.5038781E-1,8.078768E-2,2.3617217E-2,6.9947176E-2,1.08792685E-1,-1.5704924E-2,-6.894526E-2,-1.01224385E-1,-1.2997752E-1,-1.2551227E-1,-2.0369272E-1,-2.18349E-1,-3.1571344E-1,-3.0004907E-1,-1.6568666E-2,-1.8728781E-2,-2.3763817E-2,-5.88391E-1,-6.4032364E-1,-3.269614E-2,-4.2388346E-2,-1.0867811E0,-3.747554E-2,-9.581972E-1,-7.4934787E-1,-9.720923E-2,-3.6812346E-2,7.6717003E-3,7.489064E-3,6.992454E-3,6.3342075E-3,7.4414606E-3,1.0502217E-2,4.090144E-3,-8.194943E-4,6.3978665E-4,1.6870713E-3,3.8938138E-3,1.654194E-3,6.6885124E-3,5.3082155E-3,-1.6018719E-3,4.347519E-4,-3.8611197E-3,3.6983558E-3,-5.1856684E-3,2.4970283E-3,-6.757773E-3,-1.4281248E-3,-1.0320961E-2,-2.2974922E-3,-1.0506279E-2,-9.897042E-3,-1.1306563E-2,-9.455341E-3,-1.7822912E-2,-4.2174696E-3,-1.6082508E-2,-1.2907416E-2,-3.2186646E-2,-2.8486127E-2,-3.2098588E-2,-1.6964888E-2,-3.6418185E-2,-5.480816E-2,-5.0254848E-2,-4.4432662E-2,-2.5162607E-2,-4.051043E-2],"categories":[],"categories_nodes":[],"categories_segments":[],"categories_sizes":[],"default_left":[0,0,0,0,0,0,0,0,0,0,0,0,0,0,0,0,0,0,0,0,0,0,0,0,0,0,0,0,0,0,0,0,0,0,0,0,0,0,0,0,0,0,0,0,0,0,0,0,0,0,0,0,0,0,0,0,0,0,0,0,0,0,0,0,0,0,0,0,0,0,0,0,0,0,0,0,0,0,0,0,0,0,0,0,0,0,0,0,0,0,0,0,0,0,0,0,0,0,0,0,0,0,0],"id":11,"left_children":[1,3,5,7,9,11,13,15,17,19,21,23,25,27,29,31,33,35,37,39,41,43,45,47,49,51,53,55,57,59,-1,61,-1,63,65,67,69,71,73,75,77,79,81,83,85,87,89,91,-1,-1,-1,93,95,-1,-1,97,-1,99,101,-1,-1,-1,-1,-1,-1,-1,-1,-1,-1,-1,-1,-1,-1,-1,-1,-1,-1,-1,-1,-1,-1,-1,-1,-1,-1,-1,-1,-1,-1,-1,-1,-1,-1,-1,-1,-1,-1,-1,-1,-1,-1,-1,-1],"loss_changes":[2.5351838E3,2.8357996E2,3.1645068E2,4.3136597E1,9.338646E0,7.119519E1,2.3744751E1,5.8862305E-1,4.091301E0,1.0759416E0,1.9696808E-1,1.5821533E0,1.1541748E-1,1.0365845E1,1.7339783E0,6.677246E-2,9.3933105E-2,3.0461435E0,1.7023811E0,1.684084E-1,5.5515766E-2,2.6341248E-1,2.8286362E-1,1.0381317E-1,1.164093E-1,3.8568115E-1,3.0671692E-1,1.3372192E0,9.442627E0,3.623886E-1,0E0,2.4871826E-2,0E0,6.81839E-2,5.0655365E-2,1.4606571E-1,2.8003907E-1,7.0126534E-1,1.2635612E-1,8.795136E-2,1.0271016E-1,1.0563707E-1,5.810356E-2,3.1880975E-1,3.4225464E-2,6.64711E-2,3.2815456E-1,2.1746063E-1,0E0,0E0,0E0,7.026672E-2,2.2671509E-1,0E0,0E0,6.5426636E-1,0E0,1.190979E0,5.133957E0,0E0,0E0,0E0,0E0,0E0,0E0,0E0,0E0,0E0,0E0,0E0,0E0,0E0,0E0,0E0,0E0,0E0,0E0,0E0,0E0,0E0,0E0,0E0,0E0,0E0,0E0,0E0,0E0,0E0,0E0,0E0,0E0,0E0,0E0,0E0,0E0,0E0,0E0,0E0,0E0,0E0,0E0,0E0,0E0],"parents":[2147483647,0,0,1,1,2,2,3,3,4,4,5,5,6,6,7,7,8,8,9,9,10,10,11,11,12,12,13,13,14,14,15,15,16,16,17,17,18,18,19,19,20,20,21,21,22,22,23,23,24,24,25,25,26,26,27,27,28,28,29,29,31,31,33,33,34,34,35,35,36,36,37,37,38,38,39,39,40,40,41,41,42,42,43,43,44,44,45,45,46,46,47,47,51,51,52,52,55,55,57,57,58,58],"right_children":[2,4,6,8,10,12,14,16,18,20,22,24,26,28,30,32,34,36,38,40,42,44,46,48,50,52,54,56,58,60,-1,62,-1,64,66,68,70,72,74,76,78,80,82,84,86,88,90,92,-1,-1,-1,94,96,-1,-1,98,-1,100,102,-1,-1,-1,-1,-1,-1,-1,-1,-1,-1,-1,-1,-1,-1,-1,-1,-1,-1,-1,-1,-1,-1,-1,-1,-1,-1,-1,-1,-1,-1,-1,-1,-1,-1,-1,-1,-1,-1,-1,-1,-1,-1,-1,-1],"split_conditions":[4.02E-1,2.7E-1,6.5E-1,7E-2,3.7E-1,5.7E-1,8E-1,1E0,1E0,3E-1,2E0,5E-1,1E0,1E0,1E0,7E0,2E0,1.5E-1,2E-1,1E0,3.2E-1,4E-1,8E0,4.7E-1,1E1,1E0,3E0,3E0,3E0,1E0,-6.291327E-2,4E0,7.970019E-3,6E0,1E1,1.2E1,1E0,1.7E-1,2E0,1E0,8E0,1E0,9E0,1E0,1E0,1E0,1E0,1E0,-1.6568666E-2,-1.8728781E-2,-2.3763817E-2,2E0,1.3E1,-3.269614E-2,-4.2388346E-2,7E-1,-3.747554E-2,2E0,4E0,-9.720923E-2,-3.6812346E-2,7.6717003E-3,7.489064E-3,6.992454E-3,6.3342075E-3,7.4414606E-3,1.0502217E-2,4.090144E-3,-8.194943E-4,6.3978665E-4,1.6870713E-3,3.8938138E-3,1.654194E-3,6.6885124E-3,5.3082155E-3,-1.6018719E-3,4.347519E-4,-3.8611197E-3,3.6983558E-3,-5.1856684E-3,2.4970283E-3,-6.757773E-3,-1.4281248E-3,-1.0320961E-2,-2.2974922E-3,-1.0506279E-2,-9.897042E-3,-1.1306563E-2,-9.455341E-3,-1.7822912E-2,-4.2174696E-3,-1.6082508E-2,-1.2907416E-2,-3.2186646E-2,-2.8486127E-2,-3.2098588E-2,-1.6964888E-2,-3.6418185E-2,-5.480816E-2,-5.0254848E-2,-4.4432662E-2,-2.5162607E-2,-4.051043E-2],"split_indices":[0,0,0,0,0,0,0,6,5,0,1,0,6,5,5,3,1,0,0,5,0,0,3,0,3,5,1,1,3,1,0,3,0,3,3,3,6,0,3,1,3,6,3,6,5,6,6,1,0,0,0,3,3,0,0,0,0,3,3,0,0,0,0,0,0,0,0,0,0,0,0,0,0,0,0,0,0,0,0,0,0,0,0,0,0,0,0,0,0,0,0,0,0,0,0,0,0,0,0,0,0,0,0],"split_type":[0,0,0,0,0,0,0,0,0,0,0,0,0,0,0,0,0,0,0,0,0,0,0,0,0,0,0,0,0,0,0,0,0,0,0,0,0,0,0,0,0,0,0,0,0,0,0,0,0,0,0,0,0,0,0,0,0,0,0,0,0,0,0,0,0,0,0,0,0,0,0,0,0,0,0,0,0,0,0,0,0,0,0,0,0,0,0,0,0,0,0,0,0,0,0,0,0,0,0,0,0,0,0],"sum_hessian":[4.0837E4,3.5371E4,5.466E3,3.2074E4,3.297E3,3.772E3,1.694E3,2.3502E4,8.572E3,6.83E2,2.614E3,2.194E3,1.578E3,1.46E3,2.34E2,1.8917E4,4.585E3,4.025E3,4.547E3,3E2,3.83E2,2.098E3,5.16E2,9.03E2,1.291E3,1.317E3,2.61E2,4.53E2,1.007E3,1.1E1,2.23E2,1.6904E4,2.013E3,3.705E3,8.8E2,1.466E3,2.559E3,2.407E3,2.14E3,2.19E2,8.1E1,2.66E2,1.17E2,5E1,2.048E3,4.79E2,3.7E1,3.31E2,5.72E2,1.266E3,2.5E1,4.22E2,8.95E2,2.4E2,2.1E1,4.31E2,2.2E1,6.38E2,3.69E2,9E0,2E0,1.1704E4,5.2E3,3.106E3,5.99E2,8.61E2,1.9E1,1.451E3,1.5E1,1.238E3,1.321E3,1.98E3,4.27E2,1.99E2,1.941E3,1.31E2,8.8E1,7.7E1,4E0,2.62E2,4E0,1.11E2,6E0,2.4E1,2.6E1,9.5E2,1.098E3,3.73E2,1.06E2,3.1E1,6E0,2.14E2,1.17E2,9.8E1,3.24E2,8.89E2,6E0,1.3E1,4.18E2,3.73E2,2.65E2,7.5E1,2.94E2],"tree_param":{"num_deleted":"0","num_feature":"7","num_nodes":"103","size_leaf_vector":"1"}},{"base_weights":[7.821926E-5,2.1635129E-3,-5.106319E-1,-4.7023784E-2,1.2416253E-2,-6.260044E-1,-2.576116E-1,-2.9826138E-2,-1.7236383E-1,1.86399E-2,-1.2962891E-2,-6.4960253E-1,9.267285E-3,-1.1464782E-1,-4.0716308E-1,-2.2362268E-2,-7.806739E-2,-2.629249E-1,-1.1618789E-1,2.6874956E-2,-1.6572813E-3,-1.4427459E-2,2.1386588E-2,-6.6060823E-1,-9.502422E-3,-1.0168828E-1,-1.1937876E-2,-4.799828E-1,5.667053E-3,-1.230219E-2,-5.5829257E-2,-1.3336016E-1,-6.2682785E-2,-2.6620376E-1,6.6753104E-2,-3.2764837E-2,-1.8583517E-1,3.1396467E-2,1.4105184E-2,-4.154365E-2,1.4577921E-2,-1.259135E-2,-3.6672432E-2,6.0974706E-2,-1.3980682E-2,-3.0045003E-2,-3.7176203E-2,-4.011394E-3,-9.218027E-3,-2.7569363E-2,-1.1900152E-2,6.1109604E-5,-2.6320992E-3,7.332614E-3,-3.0481087E-3,-2.87481E-3,-9.229023E-3,-6.0480735E-3,-1.6565223E-3,-1.1464243E-2,-1.4532297E-2,7.2292425E-3,-4.1685537E-3,-2.293096E-3,3.8650953E-3,-1.0274558E-2,5.527796E-4,1.9202024E-3,1.211482E-3,-1.6396635E-4,1.0655378E-3,-5.9716986E-4,-1.12947235E-2,-5.0480718E-5,1.0936715E-3,-7.205605E-4,4.1750996E-4,-3.3078094E-3,-2.2559884E-4,2.1356659E-3,4.3597105E-3,-5.339743E-3,4.5720176E-4],"categories":[],"categories_nodes":[],"categories_segments":[],"categories_sizes":[],"default_left":[0,0,0,0,0,0,0,0,0,0,0,0,0,0,0,0,0,0,0,0,0,0,0,0,0,0,0,0,0,0,0,0,0,0,0,0,0,0,0,0,0,0,0,0,0,0,0,0,0,0,0,0,0,0,0,0,0,0,0,0,0,0,0,0,0,0,0,0,0,0,0,0,0,0,0,0,0,0,0,0,0,0,0],"id":12,"left_children":[1,3,5,7,9,11,13,15,17,19,21,23,-1,25,27,29,31,33,35,37,39,41,43,45,-1,47,-1,49,-1,51,53,55,57,59,61,63,65,67,69,71,73,75,77,79,81,-1,-1,-1,-1,-1,-1,-1,-1,-1,-1,-1,-1,-1,-1,-1,-1,-1,-1,-1,-1,-1,-1,-1,-1,-1,-1,-1,-1,-1,-1,-1,-1,-1,-1,-1,-1,-1,-1],"loss_changes":[4.3735596E1,2.062664E1,4.71373E0,1.5202291E1,5.3462453E0,2.3030853E0,1.1078634E0,2.2324677E0,4.29879E0,4.5433064E0,3.356558E-1,4.3585968E-1,0E0,2.2364914E-2,1.0398788E0,1.8089707E0,6.985364E-1,3.690834E-1,3.0558796E0,1.1159916E0,5.081387E0,2.6069593E-1,3.8308626E-1,8.7898254E-2,0E0,3.488618E-2,0E0,2.661724E-1,0E0,2.2554538E0,1.2997775E0,6.8882704E-1,1.1189137E0,2.2392273E-1,5.8791902E-2,3.5095957E-1,1.1129866E0,7.1619034E-1,6.3366187E-1,1.238431E1,6.342331E-1,2.2527844E-1,4.614802E-1,5.8041453E-2,3.121903E-1,0E0,0E0,0E0,0E0,0E0,0E0,0E0,0E0,0E0,0E0,0E0,0E0,0E0,0E0,0E0,0E0,0E0,0E0,0E0,0E0,0E0,0E0,0E0,0E0,0E0,0E0,0E0,0E0,0E0,0E0,0E0,0E0,0E0,0E0,0E0,0E0,0E0,0E0],"parents":[2147483647,0,0,1,1,2,2,3,3,4,4,5,5,6,6,7,7,8,8,9,9,10,10,11,11,13,13,14,14,15,15,16,16,17,17,18,18,19,19,20,20,21,21,22,22,23,23,25,25,27,27,29,29,30,30,31,31,32,32,33,33,34,34,35,35,36,36,37,37,38,38,39,39,40,40,41,41,42,42,43,43,44,44],"right_children":[2,4,6,8,10,12,14,16,18,20,22,24,-1,26,28,30,32,34,36,38,40,42,44,46,-1,48,-1,50,-1,52,54,56,58,60,62,64,66,68,70,72,74,76,78,80,82,-1,-1,-1,-1,-1,-1,-1,-1,-1,-1,-1,-1,-1,-1,-1,-1,-1,-1,-1,-1,-1,-1,-1,-1,-1,-1,-1,-1,-1,-1,-1,-1,-1,-1,-1,-1,-1,-1],"split_conditions":[5.1644737E-1,2E0,2E0,2.5454545E-1,1E0,1E0,2E0,1.8668163E-1,1E0,1.3725637E-1,2.6881105E-1,1E0,9.267285E-3,1E0,1E0,1E0,1.9791667E-1,1E0,3.093736E-1,1E0,1E0,1.887439E-1,3.093736E-1,2E0,-9.502422E-3,3E0,-1.1937876E-2,3E0,5.667053E-3,1E0,2.5893921E-2,1.910569E-1,1E0,3.018018E-1,2.9399702E-1,3.018018E-1,1E0,4E0,3E0,2.2614093E-1,3E0,8E0,2.1924832E-1,2.9399702E-1,2E0,-3.0045003E-2,-3.7176203E-2,-4.011394E-3,-9.218027E-3,-2.7569363E-2,-1.1900152E-2,6.1109604E-5,-2.6320992E-3,7.332614E-3,-3.0481087E-3,-2.87481E-3,-9.229023E-3,-6.0480735E-3,-1.6565223E-3,-1.1464243E-2,-1.4532297E-2,7.2292425E-3,-4.1685537E-3,-2.293096E-3,3.8650953E-3,-1.0274558E-2,5.527796E-4,1.9202024E-3,1.211482E-3,-1.6396635E-4,1.0655378E-3,-5.9716986E-4,-1.12947235E-2,-5.0480718E-5,1.0936715E-3,-7.205605E-4,4.1750996E-4,-3.3078094E-3,-2.2559884E-4,2.1356659E-3,4.3597105E-3,-5.339743E-3,4.5720176E-4],"split_indices":[2,3,1,2,4,6,3,2,1,2,2,4,0,4,4,6,2,6,2,6,1,2,2,3,0,1,0,3,0,4,2,2,1,2,2,2,4,3,3,2,3,3,2,2,1,0,0,0,0,0,0,0,0,0,0,0,0,0,0,0,0,0,0,0,0,0,0,0,0,0,0,0,0,0,0,0,0,0,0,0,0,0,0],"split_type":[0,0,0,0,0,0,0,0,0,0,0,0,0,0,0,0,0,0,0,0,0,0,0,0,0,0,0,0,0,0,0,0,0,0,0,0,0,0,0,0,0,0,0,0,0,0,0,0,0,0,0,0,0,0,0,0,0,0,0,0,0,0,0,0,0,0,0,0,0,0,0,0,0,0,0,0,0,0,0,0,0,0,0],"sum_hessian":[4.1065E4,4.0899E4,1.66E2,7.054E3,3.3845E4,1.13E2,5.3E1,6.204E3,8.5E2,2.718E4,6.665E3,1.1E2,3E0,2.8E1,2.5E1,5.374E3,8.3E2,3.24E2,5.26E2,1.9335E4,7.845E3,6.393E3,2.72E2,1.07E2,3E0,2.7E1,1E0,2.2E1,3E0,4.133E3,1.241E3,1.79E2,6.51E2,3.21E2,3E0,2.4E2,2.86E2,1.4278E4,5.057E3,2.269E3,5.576E3,5.907E3,4.86E2,1.28E2,1.44E2,6.7E1,4E1,2.3E1,4E0,1.6E1,6E0,3.096E3,1.037E3,3E1,1.211E3,7.3E1,1.06E2,2.18E2,4.33E2,1.32E2,1.89E2,2E0,1E0,2.15E2,2.5E1,2.6E2,2.6E1,7.217E3,7.061E3,1.482E3,3.575E3,1.956E3,3.13E2,1.778E3,3.798E3,5.435E3,4.72E2,2.53E2,2.33E2,7.7E1,5.1E1,2.8E1,1.16E2],"tree_param":{"num_deleted":"0","num_feature":"7","num_nodes":"83","size_leaf_vector":"1"}},{"base_weights":[-1.7787502E-4,9.4758056E-2,-5.9997797E-1,1.2304596E-1,-1.6418722E-1,-4.4739303E-1,-9.502542E-1,1.4255568E-1,6.780955E-2,-5.443078E-2,-1.9542763E-1,-3.343017E-1,-5.988188E-1,-8.943827E-1,-1.2593936E0,1.3956806E-1,1.6677566E-1,6.660236E-2,2.327087E-1,-3.3260416E-2,-9.389336E-2,-1.3525167E-1,-1.9804528E-1,-2.9994455E-1,-3.5888377E-1,-6.0800093E-1,-4.274658E-1,-9.9466014E-1,-8.32139E-1,-1.4991803E0,-1.0971143E0,1.3753563E-1,1.4778087E-1,2.3754819E-1,1.5689074E-1,5.6137707E-2,7.907715E-2,1.4174542E-2,1.6864878E-1,-2.7291987E-2,-7.958665E-2,-9.62126E-2,4.780552E-2,-2.2229213E-4,-1.479882E-1,-2.0273592E-1,-1.5996487E-1,-3.039237E-1,-1.8173027E-1,-3.5642233E-1,-4.9810168E-1,-3.1222556E-2,-5.74608E-1,-1.7520168E-1,-4.5050222E-1,-1.0196601E0,-7.79174E-1,-8.788939E-1,-5.506033E-1,-7.82933E-2,-5.942712E-2,-5.824987E-2,-4.5934625E-2,6.8183094E-3,7.329771E-3,7.567161E-3,6.5203453E-3,1.03575345E-2,1.4640868E-2,7.79718E-3,1.4901891E-2,3.7760579E-3,2.0823057E-3,4.5705093E-3,3.556367E-3,8.840975E-3,-1.5032864E-3,1.7676033E-3,-1.6261031E-3,-1.0670423E-2,-1.5526888E-3,-4.120633E-3,-5.7308017E-3,-1.8582068E-3,3.9169486E-3,-5.133988E-3,2.5517116E-3,-7.7999667E-3,2.2518286E-3,-9.64531E-3,-1.0959991E-2,-5.7877265E-3,-9.871932E-3,-1.4814456E-2,-1.6881023E-2,-4.1557862E-3,-1.2083697E-2,-8.293915E-3,-1.7882198E-2,-2.6462788E-2,2.3456425E-3,-2.8115517E-2,-3.3027276E-2,-9.278414E-3,-2.3067233E-3,-1.6200235E-2,-2.684784E-2,-5.1727653E-2,-4.0238064E-2,-3.944053E-2,-5.024412E-3,-4.7709834E-2,-4.014384E-2,-1.9511689E-2,-3.2297816E-2],"categories":[],"categories_nodes":[],"categories_segments":[],"categories_sizes":[],"default_left":[0,0,0,0,0,0,0,0,0,0,0,0,0,0,0,0,0,0,0,0,0,0,0,0,0,0,0,0,0,0,0,0,0,0,0,0,0,0,0,0,0,0,0,0,0,0,0,0,0,0,0,0,0,0,0,0,0,0,0,0,0,0,0,0,0,0,0,0,0,0,0,0,0,0,0,0,0,0,0,0,0,0,0,0,0,0,0,0,0,0,0,0,0,0,0,0,0,0,0,0,0,0,0,0,0,0,0,0,0,0,0,0,0,0,0],"id":13,"left_children":[1,3,5,7,9,11,13,15,17,19,21,23,25,27,29,31,33,35,37,39,41,43,45,47,49,51,53,55,57,59,61,63,65,67,69,71,73,-1,75,77,79,81,83,85,87,89,91,93,95,97,99,-1,101,103,105,107,109,111,113,-1,-1,-1,-1,-1,-1,-1,-1,-1,-1,-1,-1,-1,-1,-1,-1,-1,-1,-1,-1,-1,-1,-1,-1,-1,-1,-1,-1,-1,-1,-1,-1,-1,-1,-1,-1,-1,-1,-1,-1,-1,-1,-1,-1,-1,-1,-1,-1,-1,-1,-1,-1,-1,-1,-1,-1],"loss_changes":[2.3289514E3,2.5867386E2,2.982893E2,3.4296173E1,1.1914856E1,6.65014E1,2.8149902E1,1.6789246E0,1.6389313E0,6.4183474E-1,3.996048E-1,1.7774353E0,2.3582153E0,8.154053E0,8.355743E0,3.293152E-1,1.7662582E0,1.0728111E0,1.4737582E-1,1.3718128E-1,9.300208E-2,1.9946432E-1,4.3055725E-1,3.8552094E-1,2.6657104E-1,5.074463E-1,4.3246078E-1,2.1468506E0,1.1283997E1,2.3112488E-1,8.3128357E-1,1.5805054E-1,2.3662567E-1,4.6687698E-1,2.5632095E-1,1.2583628E0,3.6234665E-1,0E0,5.240178E-2,1.4792922E-1,3.6357397E-1,5.7855368E-2,1.5883483E-2,6.3007936E-2,1.7093849E-1,3.305893E-1,4.5594025E-1,1.3278198E-1,1.749866E-1,2.379303E-1,3.6441755E-1,0E0,1.9184875E-1,3.480792E-3,7.009258E-1,7.229004E-1,3.1968307E-1,3.612976E0,1.7358513E0,0E0,0E0,0E0,0E0,0E0,0E0,0E0,0E0,0E0,0E0,0E0,0E0,0E0,0E0,0E0,0E0,0E0,0E0,0E0,0E0,0E0,0E0,0E0,0E0,0E0,0E0,0E0,0E0,0E0,0E0,0E0,0E0,0E0,0E0,0E0,0E0,0E0,0E0,0E0,0E0,0E0,0E0,0E0,0E0,0E0,0E0,0E0,0E0,0E0,0E0,0E0,0E0,0E0,0E0,0E0,0E0],"parents":[2147483647,0,0,1,1,2,2,3,3,4,4,5,5,6,6,7,7,8,8,9,9,10,10,11,11,12,12,13,13,14,14,15,15,16,16,17,17,18,18,19,19,20,20,21,21,22,22,23,23,24,24,25,25,26,26,27,27,28,28,29,29,30,30,31,31,32,32,33,33,34,34,35,35,36,36,38,38,39,39,40,40,41,41,42,42,43,43,44,44,45,45,46,46,47,47,48,48,49,49,50,50,52,52,53,53,54,54,55,55,56,56,57,57,58,58],"right_children":[2,4,6,8,10,12,14,16,18,20,22,24,26,28,30,32,34,36,38,40,42,44,46,48,50,52,54,56,58,60,62,64,66,68,70,72,74,-1,76,78,80,82,84,86,88,90,92,94,96,98,100,-1,102,104,106,108,110,112,114,-1,-1,-1,-1,-1,-1,-1,-1,-1,-1,-1,-1,-1,-1,-1,-1,-1,-1,-1,-1,-1,-1,-1,-1,-1,-1,-1,-1,-1,-1,-1,-1,-1,-1,-1,-1,-1,-1,-1,-1,-1,-1,-1,-1,-1,-1,-1,-1,-1,-1,-1,-1,-1,-1,-1,-1],"split_conditions":[4.02E-1,2.02E-1,6.5E-1,7E-2,3.2E-1,5.7E-1,8E-1,2.0762376E-1,4.389313E-1,3E-1,3.7E-1,5E-1,3.3832976E-1,2E0,1.5951844E-1,1.3725637E-1,1E0,1.0597449E-1,2E0,1.7264691E-1,1E0,3.4614373E-2,2.1313575E-1,2.5454545E-1,1.1E1,1.4531745E-1,3.5070702E-1,4.389313E-1,2.7454546E-1,7E0,5.1644737E-1,7E0,1E0,2.804349E-1,5.1644737E-1,1.5E-1,1E0,1.4174542E-2,1E0,2E0,1.910569E-1,1E0,1E0,3.5E-1,3E0,1E0,2.6324236E-1,2E0,2E0,2.0246586E-2,2.4590164E-1,-3.1222556E-2,1E0,3E0,1E0,3E0,3E0,1.06617644E-1,1E0,-7.82933E-2,-5.942712E-2,-5.824987E-2,-4.5934625E-2,6.8183094E-3,7.329771E-3,7.567161E-3,6.5203453E-3,1.03575345E-2,1.4640868E-2,7.79718E-3,1.4901891E-2,3.7760579E-3,2.0823057E-3,4.5705093E-3,3.556367E-3,8.840975E-3,-1.5032864E-3,1.7676033E-3,-1.6261031E-3,-1.0670423E-2,-1.5526888E-3,-4.120633E-3,-5.7308017E-3,-1.8582068E-3,3.9169486E-3,-5.133988E-3,2.5517116E-3,-7.7999667E-3,2.2518286E-3,-9.64531E-3,-1.0959991E-2,-5.7877265E-3,-9.871932E-3,-1.4814456E-2,-1.6881023E-2,-4.1557862E-3,-1.2083697E-2,-8.293915E-3,-1.7882198E-2,-2.6462788E-2,2.3456425E-3,-2.8115517E-2,-3.3027276E-2,-9.278414E-3,-2.3067233E-3,-1.6200235E-2,-2.684784E-2,-5.1727653E-2,-4.0238064E-2,-3.944053E-2,-5.024412E-3,-4.7709834E-2,-4.014384E-2,-1.9511689E-2,-3.2297816E-2],"split_indices":[0,0,0,0,0,0,0,2,2,0,0,0,2,3,2,2,1,2,1,2,6,2,2,2,3,2,2,2,2,3,2,3,6,2,2,0,1,0,6,3,2,1,1,0,1,1,2,1,1,2,2,0,6,3,1,1,1,2,1,0,0,0,0,0,0,0,0,0,0,0,0,0,0,0,0,0,0,0,0,0,0,0,0,0,0,0,0,0,0,0,0,0,0,0,0,0,0,0,0,0,0,0,0,0,0,0,0,0,0,0,0,0,0,0,0],"split_type":[0,0,0,0,0,0,0,0,0,0,0,0,0,0,0,0,0,0,0,0,0,0,0,0,0,0,0,0,0,0,0,0,0,0,0,0,0,0,0,0,0,0,0,0,0,0,0,0,0,0,0,0,0,0,0,0,0,0,0,0,0,0,0,0,0,0,0,0,0,0,0,0,0,0,0,0,0,0,0,0,0,0,0,0,0,0,0,0,0,0,0,0,0,0,0,0,0,0,0,0,0,0,0,0,0,0,0,0,0,0,0,0,0,0,0],"sum_hessian":[4.0898E4,3.531E4,5.588E3,3.1833E4,3.477E3,3.894E3,1.694E3,2.3523E4,8.31E3,7.71E2,2.706E3,2.231E3,1.663E3,1.438E3,2.56E2,2.0946E4,2.577E3,8.251E3,5.9E1,5.03E2,2.68E2,1.15E2,2.591E3,9.36E2,1.295E3,1.576E3,8.7E1,5.45E2,8.93E2,1E2,1.56E2,1.6805E4,4.141E3,3.13E2,2.264E3,4.49E3,3.761E3,3.1E1,2.8E1,4.47E2,5.6E1,2.64E2,4E0,1E1,1.05E2,2.303E3,2.88E2,9.04E2,3.2E1,1.276E3,1.9E1,1.044E3,5.32E2,8E0,7.9E1,4.85E2,6E1,7.64E2,1.29E2,7.9E1,2.1E1,1.09E2,4.7E1,1.4898E4,1.907E3,3.43E3,7.11E2,2.05E2,1.08E2,2.251E3,1.3E1,1.919E3,2.571E3,1.47E3,2.291E3,2.7E1,1E0,3.4E1,4.13E2,1.4E1,4.2E1,1.54E2,1.1E2,1E0,3E0,3E0,7E0,1.01E2,4E0,1.45E3,8.53E2,1.34E2,1.54E2,7.45E2,1.59E2,1.3E1,1.9E1,9E0,1.267E3,1.8E1,1E0,4.72E2,6E1,7E0,1E0,3.4E1,4.5E1,4.5E2,3.5E1,5.9E1,1E0,3.78E2,3.86E2,5E1,7.9E1],"tree_param":{"num_deleted":"0","num_feature":"7","num_nodes":"115","size_leaf_vector":"1"}},{"base_weights":[2.4763844E-4,8.927032E-2,-5.715996E-1,1.1511352E-1,-1.6240175E-1,-4.223862E-1,-9.093266E-1,1.3458236E-1,6.0826622E-2,-7.258979E-2,-1.8695283E-1,-3.1506637E-1,-5.718215E-1,-8.583674E-1,-1.1737422E0,1.3167484E-1,1.5516289E-1,5.344205E-2,8.428584E-2,-3.5165485E-2,-1.0253496E-1,-1.9236113E-1,-1.6632256E-1,-2.827661E-1,-3.3743224E-1,-5.7923293E-1,-4.438002E-1,-8.864856E-1,-3.2070745E-2,-1.1288128E0,-1.8192528E0,1.3222925E-1,1.05495155E-1,2.1557423E-1,1.4558181E-1,7.017882E-2,4.2057604E-2,1.2445656E-1,6.924964E-2,-6.6532224E-2,-2.537995E-2,-9.2519276E-2,-1.2367795E-1,-1.641134E-1,-1.971044E-1,-1.0370011E-1,-1.8540053E-1,-2.85247E-1,-1.8244107E-1,-3.5379502E-1,-3.1341267E-1,-5.942553E-1,-5.416412E-1,-1.8256392E-1,-4.6650648E-1,-8.6378676E-1,-5.047653E-2,-1.3709736E0,-1.0648667E0,-6.3654326E-2,-1.1031418E-1,6.33296E-3,6.7397626E-3,5.915898E-3,5.009698E-3,8.897732E-3,1.2863578E-2,7.2455243E-3,1.4313203E-2,2.6861485E-3,3.6106363E-3,2.7362825E-3,2.9909177E-4,5.455419E-3,1.0691944E-2,3.5617251E-3,-3.290084E-3,-4.1881157E-3,7.2623766E-4,-5.070393E-3,-1.0848765E-3,-5.0703497E-3,-2.935717E-3,4.3679373E-3,-6.4816116E-3,-1.0213216E-2,-6.196977E-3,-9.731729E-3,-1.1840149E-2,-4.4420906E-3,-9.560804E-3,-8.434153E-3,-1.1505875E-2,-9.822313E-3,-1.4321622E-2,1.3645843E-3,-1.2505444E-2,-7.962452E-3,-1.7845253E-2,-4.449947E-3,-1.606976E-2,-3.16698E-2,-2.887283E-2,-3.4960177E-2,-2.6277995E-2,-1.1318705E-2,-5.112048E-3,-2.4513206E-2,-1.0702631E-2,-4.519622E-2,-4.133281E-2,-7.172568E-2,-3.8786307E-2,-5.5553842E-2,-4.443239E-2],"categories":[],"categories_nodes":[],"categories_segments":[],"categories_sizes":[],"default_left":[0,0,0,0,0,0,0,0,0,0,0,0,0,0,0,0,0,0,0,0,0,0,0,0,0,0,0,0,0,0,0,0,0,0,0,0,0,0,0,0,0,0,0,0,0,0,0,0,0,0,0,0,0,0,0,0,0,0,0,0,0,0,0,0,0,0,0,0,0,0,0,0,0,0,0,0,0,0,0,0,0,0,0,0,0,0,0,0,0,0,0,0,0,0,0,0,0,0,0,0,0,0,0,0,0,0,0,0,0,0,0,0,0,0,0],"id":14,"left_children":[1,3,5,7,9,11,13,15,17,19,21,23,25,27,29,31,33,35,37,39,41,43,45,47,49,51,53,55,-1,57,59,61,63,65,67,69,71,73,75,77,79,81,83,85,87,89,91,93,95,97,99,101,103,105,107,109,-1,111,113,-1,-1,-1,-1,-1,-1,-1,-1,-1,-1,-1,-1,-1,-1,-1,-1,-1,-1,-1,-1,-1,-1,-1,-1,-1,-1,-1,-1,-1,-1,-1,-1,-1,-1,-1,-1,-1,-1,-1,-1,-1,-1,-1,-1,-1,-1,-1,-1,-1,-1,-1,-1,-1,-1,-1,-1],"loss_changes":[2.090257E3,2.310997E2,2.7834192E2,3.4046265E1,7.282707E0,6.1371216E1,2.1818115E1,1.3986206E0,1.4692173E0,7.943163E-1,2.5787354E-1,1.519928E0,1.263916E0,8.118286E0,5.806061E0,2.8775024E-1,1.6645203E0,1.2304058E0,1.2205534E0,9.591842E-2,7.220316E-2,2.4259186E-1,6.342802E-1,1.7719269E-1,4.0634155E-1,5.319824E-1,4.605503E-1,2.6415405E0,0E0,2.5043335E0,5.7334137E-1,2.738037E-1,1.7782688E-2,5.801029E-1,1.976471E-1,8.377838E-2,1.7614441E0,7.3530483E-1,4.0221882E-1,1.0596302E-1,6.6111624E-2,7.5767994E-2,1.6713953E-1,4.6020126E-1,1.2569427E-1,1.5205598E-1,2.7366066E-1,3.8154602E-2,3.6162978E-1,4.1207123E-1,9.423294E-1,3.3779907E-1,7.550049E-1,8.525968E-3,3.9886475E-1,8.4588623E-1,0E0,7.783203E-1,6.9825745E-1,0E0,0E0,0E0,0E0,0E0,0E0,0E0,0E0,0E0,0E0,0E0,0E0,0E0,0E0,0E0,0E0,0E0,0E0,0E0,0E0,0E0,0E0,0E0,0E0,0E0,0E0,0E0,0E0,0E0,0E0,0E0,0E0,0E0,0E0,0E0,0E0,0E0,0E0,0E0,0E0,0E0,0E0,0E0,0E0,0E0,0E0,0E0,0E0,0E0,0E0,0E0,0E0,0E0,0E0,0E0,0E0],"parents":[2147483647,0,0,1,1,2,2,3,3,4,4,5,5,6,6,7,7,8,8,9,9,10,10,11,11,12,12,13,13,14,14,15,15,16,16,17,17,18,18,19,19,20,20,21,21,22,22,23,23,24,24,25,25,26,26,27,27,29,29,30,30,31,31,32,32,33,33,34,34,35,35,36,36,37,37,38,38,39,39,40,40,41,41,42,42,43,43,44,44,45,45,46,46,47,47,48,48,49,49,50,50,51,51,52,52,53,53,54,54,55,55,57,57,58,58],"right_children":[2,4,6,8,10,12,14,16,18,20,22,24,26,28,30,32,34,36,38,40,42,44,46,48,50,52,54,56,-1,58,60,62,64,66,68,70,72,74,76,78,80,82,84,86,88,90,92,94,96,98,100,102,104,106,108,110,-1,112,114,-1,-1,-1,-1,-1,-1,-1,-1,-1,-1,-1,-1,-1,-1,-1,-1,-1,-1,-1,-1,-1,-1,-1,-1,-1,-1,-1,-1,-1,-1,-1,-1,-1,-1,-1,-1,-1,-1,-1,-1,-1,-1,-1,-1,-1,-1,-1,-1,-1,-1,-1,-1,-1,-1,-1,-1],"split_conditions":[4.02E-1,2.7E-1,6.02E-1,1E-1,3.7E-1,5.7E-1,8E-1,1.9791667E-1,1.5439385E-1,3E-1,1.6091955E-1,5E-1,3.3832976E-1,3.5070702E-1,1E0,2E-3,1E0,1.5E-1,1E0,1E0,3.2E-1,5.186671E-2,1E0,2.804349E-1,1.1723744E-1,1E0,3.5070702E-1,1E0,-3.2070745E-2,9.626895E-2,9.4137356E-2,7.0565306E-2,6.376997E-2,2.4135135E-1,5.1644737E-1,4.3650795E-2,1E0,2.9399702E-1,2.02E-1,1.5567967E-1,2.3514522E-2,1.4413333E-1,1.6324535E-2,4.1025642E-2,1.4971665E-1,1E0,1E0,2.3514522E-2,2E0,2.3514522E-2,1.20280735E-1,8.62949E-2,4.590772E-2,2E0,1E0,1.2802586E-1,-5.047653E-2,2E0,5.1644737E-1,-6.3654326E-2,-1.1031418E-1,6.33296E-3,6.7397626E-3,5.915898E-3,5.009698E-3,8.897732E-3,1.2863578E-2,7.2455243E-3,1.4313203E-2,2.6861485E-3,3.6106363E-3,2.7362825E-3,2.9909177E-4,5.455419E-3,1.0691944E-2,3.5617251E-3,-3.290084E-3,-4.1881157E-3,7.2623766E-4,-5.070393E-3,-1.0848765E-3,-5.0703497E-3,-2.935717E-3,4.3679373E-3,-6.4816116E-3,-1.0213216E-2,-6.196977E-3,-9.731729E-3,-1.1840149E-2,-4.4420906E-3,-9.560804E-3,-8.434153E-3,-1.1505875E-2,-9.822313E-3,-1.4321622E-2,1.3645843E-3,-1.2505444E-2,-7.962452E-3,-1.7845253E-2,-4.449947E-3,-1.606976E-2,-3.16698E-2,-2.887283E-2,-3.4960177E-2,-2.6277995E-2,-1.1318705E-2,-5.112048E-3,-2.4513206E-2,-1.0702631E-2,-4.519622E-2,-4.133281E-2,-7.172568E-2,-3.8786307E-2,-5.5553842E-2,-4.443239E-2],"split_indices":[0,0,0,0,0,0,0,2,2,0,2,0,2,2,4,0,1,0,1,4,0,2,1,2,2,4,2,4,0,2,2,2,2,2,2,2,4,2,0,2,2,2,2,2,2,4,4,2,1,2,2,2,2,1,4,2,0,1,2,0,0,0,0,0,0,0,0,0,0,0,0,0,0,0,0,0,0,0,0,0,0,0,0,0,0,0,0,0,0,0,0,0,0,0,0,0,0,0,0,0,0,0,0,0,0,0,0,0,0,0,0,0,0,0,0],"split_type":[0,0,0,0,0,0,0,0,0,0,0,0,0,0,0,0,0,0,0,0,0,0,0,0,0,0,0,0,0,0,0,0,0,0,0,0,0,0,0,0,0,0,0,0,0,0,0,0,0,0,0,0,0,0,0,0,0,0,0,0,0,0,0,0,0,0,0,0,0,0,0,0,0,0,0,0,0,0,0,0,0,0,0,0,0,0,0,0,0,0,0,0,0,0,0,0,0,0,0,0,0,0,0,0,0,0,0,0,0,0,0,0,0,0,0],"sum_hessian":[4.1058E4,3.5528E4,5.53E3,3.222E4,3.308E3,3.837E3,1.693E3,2.3714E4,8.506E3,7.11E2,2.597E3,2.235E3,1.602E3,1.423E3,2.7E2,2.0785E4,2.929E3,6.472E3,2.034E3,3.17E2,3.94E2,2.051E3,5.46E2,9.2E2,1.315E3,1.511E3,9.1E1,1.257E3,1.66E2,2.55E2,1.5E1,2.035E4,4.35E2,3.98E2,2.531E3,2.618E3,3.854E3,5.52E2,1.482E3,7.4E1,2.43E2,2.71E2,1.23E2,3E2,1.751E3,1.29E2,4.17E2,8.96E2,2.4E1,7.74E2,5.41E2,1.069E3,4.42E2,8E0,8.3E1,1.068E3,1.89E2,4.9E1,2.06E2,8E0,7E0,6.434E3,1.3916E4,1.21E2,3.14E2,2.12E2,1.86E2,2.521E3,1E1,2.91E2,2.327E3,2.852E3,1.002E3,4.73E2,7.9E1,1.461E3,2.1E1,6.1E1,1.3E1,1E1,2.33E2,2.13E2,5.8E1,3E0,1.2E2,1.48E2,1.52E2,1.654E3,9.7E1,1.12E2,1.7E1,3.07E2,1.1E2,1.4E1,8.82E2,6E0,1.8E1,1.3E1,7.61E2,1.9E1,5.22E2,3.1E2,7.59E2,3.7E1,4.05E2,4E0,4E0,7.5E1,8E0,5.02E2,5.66E2,4.3E1,6E0,1.59E2,4.7E1],"tree_param":{"num_deleted":"0","num_feature":"7","num_nodes":"115","size_leaf_vector":"1"}},{"base_weights":[-7.313375E-5,1.6230588E-3,-4.0569088E-1,-3.8094904E-2,9.967861E-3,-4.9916428E-1,-2.1978942E-1,-2.2111945E-2,-1.6518494E-1,1.5633712E-2,-1.3295391E-2,-5.427296E-2,-5.280319E-1,-1.2203978E-1,-3.3112082E-1,-4.4637594E-2,-6.875523E-3,-4.108986E-2,-1.910385E-1,2.1243379E-2,-1.2023898E-2,-4.8965223E-2,-1.1968891E-2,7.9213185E-3,-1.0678891E-2,-2.3190832E-2,-3.176246E-2,-9.8877974E-2,-1.0489412E-2,-3.8774136E-1,4.5691277E-3,-3.4286205E-2,-7.7346765E-2,1.4897986E-2,-3.1126937E-2,5.7008833E-2,-7.893745E-2,-2.4766125E-1,-1.4847775E-1,8.091765E-3,2.6589325E-2,-9.245841E-2,5.5282577E-3,-7.0849985E-2,2.8348848E-2,-5.4772086E-3,-1.6455198E-2,-8.668728E-2,-1.0700667E-2,-2.41363E-2,-2.525296E-1,3.0489939E-3,-1.8113343E-3,-6.531659E-3,-2.602737E-3,3.112355E-3,4.6736654E-4,-2.195511E-3,2.893406E-4,-4.9857853E-4,4.5441277E-3,-6.1074393E-3,2.437334E-3,-2.0443436E-3,-1.2960558E-2,-3.60112E-3,-9.744634E-3,-3.8505494E-4,6.8408786E-4,2.0793965E-3,9.774934E-4,-2.3562638E-3,-9.560021E-3,4.6864673E-4,-2.0187916E-3,-4.131564E-3,2.1522436E-3,3.0533557E-3,-4.4263746E-3,-5.61053E-4,7.4808067E-4,-2.4175097E-3,-5.4821343E-4,6.7346194E-3,-5.019118E-3,-1.0083657E-2,-2.0298764E-2],"categories":[],"categories_nodes":[],"categories_segments":[],"categories_sizes":[],"default_left":[0,0,0,0,0,0,0,0,0,0,0,0,0,0,0,0,0,0,0,0,0,0,0,0,0,0,0,0,0,0,0,0,0,0,0,0,0,0,0,0,0,0,0,0,0,0,0,0,0,0,0,0,0,0,0,0,0,0,0,0,0,0,0,0,0,0,0,0,0,0,0,0,0,0,0,0,0,0,0,0,0,0,0,0,0,0,0],"id":15,"left_children":[1,3,5,7,9,11,13,15,17,19,21,23,25,27,29,31,33,35,37,39,41,43,45,-1,-1,-1,-1,47,-1,49,-1,51,53,55,57,59,61,63,65,67,69,71,73,75,77,79,81,83,-1,-1,85,-1,-1,-1,-1,-1,-1,-1,-1,-1,-1,-1,-1,-1,-1,-1,-1,-1,-1,-1,-1,-1,-1,-1,-1,-1,-1,-1,-1,-1,-1,-1,-1,-1,-1,-1,-1],"loss_changes":[2.8251553E1,1.3553564E1,2.8617306E0,1.4418398E1,4.4543314E0,1.422596E0,6.016638E-1,2.1646636E0,2.5363312E0,4.216456E0,3.125986E-1,3.0490866E-1,4.351673E-1,4.632619E-2,6.813369E-1,8.590479E-1,1.9880002E0,5.1686645E-1,1.5441265E0,1.5882502E0,6.470787E0,4.030125E-1,1.8580627E-1,0E0,0E0,0E0,0E0,2.074799E-2,0E0,1.8633032E-1,0E0,3.5991693E-1,8.166573E-1,5.208503E-1,8.406706E-1,8.9392394E-2,5.5769455E-1,6.5810776E-1,1.3238115E0,5.76675E-1,1.6951513E0,3.6660185E0,6.6449666E-1,2.5179523E-1,2.0807761E-1,3.0657545E-1,6.6042244E-1,9.5379665E-2,0E0,0E0,1.1770129E-2,0E0,0E0,0E0,0E0,0E0,0E0,0E0,0E0,0E0,0E0,0E0,0E0,0E0,0E0,0E0,0E0,0E0,0E0,0E0,0E0,0E0,0E0,0E0,0E0,0E0,0E0,0E0,0E0,0E0,0E0,0E0,0E0,0E0,0E0,0E0,0E0],"parents":[2147483647,0,0,1,1,2,2,3,3,4,4,5,5,6,6,7,7,8,8,9,9,10,10,11,11,12,12,13,13,14,14,15,15,16,16,17,17,18,18,19,19,20,20,21,21,22,22,27,27,29,29,31,31,32,32,33,33,34,34,35,35,36,36,37,37,38,38,39,39,40,40,41,41,42,42,43,43,44,44,45,45,46,46,47,47,50,50],"right_children":[2,4,6,8,10,12,14,16,18,20,22,24,26,28,30,32,34,36,38,40,42,44,46,-1,-1,-1,-1,48,-1,50,-1,52,54,56,58,60,62,64,66,68,70,72,74,76,78,80,82,84,-1,-1,86,-1,-1,-1,-1,-1,-1,-1,-1,-1,-1,-1,-1,-1,-1,-1,-1,-1,-1,-1,-1,-1,-1,-1,-1,-1,-1,-1,-1,-1,-1,-1,-1,-1,-1,-1,-1],"split_conditions":[5.1644737E-1,2E0,2E0,2.5857168E-1,1E0,1E0,2E0,1E0,1E0,1.757858E-1,3.0050505E-2,1E0,2E0,3E0,1E0,1.3277134E-1,1.2451331E-1,2E0,1E0,3E0,1E0,2E0,8.212306E-2,7.9213185E-3,-1.0678891E-2,-2.3190832E-2,-3.176246E-2,1E0,-1.0489412E-2,3E0,4.5691277E-3,2.3514522E-2,1.5316346E-1,5.0674208E-2,2E0,2.8674722E-1,3.3832976E-1,2.6324236E-1,3.093736E-1,1E0,4E0,2.4135135E-1,3.6621535E-1,8E0,6E0,6E0,9.1983125E-2,1E0,-1.0700667E-2,-2.41363E-2,9E0,3.0489939E-3,-1.8113343E-3,-6.531659E-3,-2.602737E-3,3.112355E-3,4.6736654E-4,-2.195511E-3,2.893406E-4,-4.9857853E-4,4.5441277E-3,-6.1074393E-3,2.437334E-3,-2.0443436E-3,-1.2960558E-2,-3.60112E-3,-9.744634E-3,-3.8505494E-4,6.8408786E-4,2.0793965E-3,9.774934E-4,-2.3562638E-3,-9.560021E-3,4.6864673E-4,-2.0187916E-3,-4.131564E-3,2.1522436E-3,3.0533557E-3,-4.4263746E-3,-5.61053E-4,7.4808067E-4,-2.4175097E-3,-5.4821343E-4,6.7346194E-3,-5.019118E-3,-1.0083657E-2,-2.0298764E-2],"split_indices":[2,3,1,2,4,5,3,5,5,2,2,4,3,1,4,2,2,1,1,3,1,1,2,0,0,0,0,4,0,3,0,2,2,2,1,2,2,2,2,5,3,2,2,3,3,3,2,5,0,0,3,0,0,0,0,0,0,0,0,0,0,0,0,0,0,0,0,0,0,0,0,0,0,0,0,0,0,0,0,0,0,0,0,0,0,0,0],"split_type":[0,0,0,0,0,0,0,0,0,0,0,0,0,0,0,0,0,0,0,0,0,0,0,0,0,0,0,0,0,0,0,0,0,0,0,0,0,0,0,0,0,0,0,0,0,0,0,0,0,0,0,0,0,0,0,0,0,0,0,0,0,0,0,0,0,0,0,0,0,0,0,0,0,0,0,0,0,0,0,0,0,0,0,0,0,0,0],"sum_hessian":[4.1061E4,4.0891E4,1.7E2,7.099E3,3.3792E4,1.12E2,5.8E1,6.307E3,7.92E2,2.7174E4,6.618E3,7E0,1.05E2,3.2E1,2.6E1,2.544E3,3.763E3,1.37E2,6.55E2,2.2592E4,4.582E3,2.36E2,6.382E3,3E0,4E0,6.9E1,3.6E1,2.7E1,5E0,2.3E1,3E0,1.934E3,6.1E2,1.983E3,1.78E3,3.8E1,9.9E1,2.79E2,3.76E2,6.53E3,1.6062E4,8.2E2,3.762E3,1.84E2,5.2E1,2.609E3,3.773E3,2.6E1,1E0,1.2E1,1.1E1,3.8E1,1.896E3,1.95E2,4.15E2,2.07E2,1.776E3,1.322E3,4.58E2,1.3E1,2.5E1,7.4E1,2.5E1,1.5E1,2.64E2,1.43E2,2.33E2,1.707E3,4.823E3,5.129E3,1.0933E4,5.63E2,2.57E2,3.472E3,2.9E2,1.67E2,1.7E1,4.1E1,1.1E1,2.037E3,5.72E2,5.53E2,3.22E3,1E0,2.5E1,1E1,1E0],"tree_param":{"num_deleted":"0","num_feature":"7","num_nodes":"87","size_leaf_vector":"1"}},{"base_weights":[-4.6413223E-4,8.4213294E-2,-5.515108E-1,1.1024133E-1,-1.4809287E-1,-4.1067603E-1,-8.6552095E-1,1.2804852E-1,6.0486473E-2,-4.7778998E-2,-1.7537268E-1,-3.0617696E-1,-5.4722005E-1,-8.151287E-1,-1.1459044E0,1.2402525E-1,1.4489016E-1,3.973982E-2,7.810443E-2,-2.8555693E-2,-8.3260976E-2,-5.719929E-2,-1.7727181E-1,-2.6990247E-1,-3.2938033E-1,-5.6596994E-1,-4.6264753E-1,-9.3139875E-1,-7.6129216E-1,-1.3342272E0,-5.0259184E-2,1.24454476E-1,9.841335E-2,1.6538899E-1,1.3760808E-1,7.230838E-2,2.0117568E-2,5.990328E-2,9.8204866E-2,-2.1359373E-2,-6.712353E-2,-8.571263E-2,3.8488653E-2,-1.0895247E-1,4.2111157E-3,-1.2528257E-1,-1.804955E-1,-2.7106163E-1,-2.2107596E-2,-8.3528414E-2,-3.3122143E-1,-5.816846E-1,-5.426115E-1,-3.3582678E-1,-4.8297423E-1,-6.248135E-1,-9.405343E-1,-8.315631E-1,-6.4237446E-1,-6.776439E-2,-3.786687E-2,6.0038185E-3,6.29973E-3,5.0515104E-3,-2.7250745E-3,7.478641E-3,1.0746413E-2,6.4066313E-3,7.10731E-3,2.9273657E-3,4.0315585E-3,7.550562E-4,1.9708837E-3,3.3696375E-3,1.5376923E-3,4.1552642E-3,7.2460896E-3,-5.008801E-3,-9.3046343E-4,-3.9800615E-3,4.7937864E-3,-3.5603573E-3,-5.194375E-3,3.9372863E-3,-1.4008497E-3,3.2115371E-3,-7.249918E-3,1.4567807E-3,-5.7616513E-3,-6.968356E-3,-4.231338E-3,-1.1816859E-2,-8.886426E-3,-1.2707054E-2,-1.4098982E-2,3.0596752E-3,-2.9115623E-3,5.541853E-4,-6.0196714E-3,-1.6390378E-2,-2.2759257E-2,-2.7658949E-2,-3.0841216E-2,-2.5752945E-2,-2.8847128E-2,-1.4766417E-2,-2.4310801E-2,-2.6359657E-2,-1.9728728E-2,-3.7157327E-2,-1.5186694E-2,-4.7270488E-2,-3.1939443E-2,-4.487798E-2,-3.344463E-2,-3.5119187E-2,-1.9389175E-2],"categories":[],"categories_nodes":[],"categories_segments":[],"categories_sizes":[],"default_left":[0,0,0,0,0,0,0,0,0,0,0,0,0,0,0,0,0,0,0,0,0,0,0,0,0,0,0,0,0,0,0,0,0,0,0,0,0,0,0,0,0,0,0,0,0,0,0,0,0,0,0,0,0,0,0,0,0,0,0,0,0,0,0,0,0,0,0,0,0,0,0,0,0,0,0,0,0,0,0,0,0,0,0,0,0,0,0,0,0,0,0,0,0,0,0,0,0,0,0,0,0,0,0,0,0,0,0,0,0,0,0,0,0,0,0,0,0],"id":16,"left_children":[1,3,5,7,9,11,13,15,17,19,21,23,25,27,29,31,33,35,37,39,41,43,45,47,49,51,53,55,57,59,-1,61,63,65,67,69,71,73,75,77,79,81,83,85,87,89,91,93,95,97,99,101,103,105,107,109,111,113,115,-1,-1,-1,-1,-1,-1,-1,-1,-1,-1,-1,-1,-1,-1,-1,-1,-1,-1,-1,-1,-1,-1,-1,-1,-1,-1,-1,-1,-1,-1,-1,-1,-1,-1,-1,-1,-1,-1,-1,-1,-1,-1,-1,-1,-1,-1,-1,-1,-1,-1,-1,-1,-1,-1,-1,-1,-1,-1],"loss_changes":[1.9130629E3,2.1489595E2,2.4114917E2,2.8306885E1,9.791176E0,5.3654053E1,2.2944214E1,1.5766602E0,3.0763493E0,5.207783E-1,6.216202E-1,1.7114716E0,2.3292236E0,8.279785E0,5.416626E0,1.9665527E-1,6.537552E-1,2.4723797E0,1.6605682E0,1.3706198E-1,8.359206E-2,1.4665529E-1,4.4163513E-1,2.3529053E-1,5.607605E-1,1.7367554E-1,6.1631775E-1,6.7276E-1,7.713623E0,2.614441E-1,0E0,1.10839844E-1,1.32756E-1,8.947563E-1,1.2583923E-1,1.619215E-1,2.3341352E-1,5.203514E-1,1.5137501E0,8.960596E-2,1.6627255E-1,6.2202334E-2,1.8270154E-2,1.6537693E-1,6.885326E-2,8.2687855E-2,3.6065674E-1,8.277893E-2,1.8609073E-2,3.9701052E-2,3.96698E-1,4.4308472E-1,2.240448E-1,1.3048029E-1,8.004875E-1,3.821907E-1,3.5980225E-2,6.023529E0,5.3956757E0,0E0,0E0,0E0,0E0,0E0,0E0,0E0,0E0,0E0,0E0,0E0,0E0,0E0,0E0,0E0,0E0,0E0,0E0,0E0,0E0,0E0,0E0,0E0,0E0,0E0,0E0,0E0,0E0,0E0,0E0,0E0,0E0,0E0,0E0,0E0,0E0,0E0,0E0,0E0,0E0,0E0,0E0,0E0,0E0,0E0,0E0,0E0,0E0,0E0,0E0,0E0,0E0,0E0,0E0,0E0,0E0,0E0,0E0],"parents":[2147483647,0,0,1,1,2,2,3,3,4,4,5,5,6,6,7,7,8,8,9,9,10,10,11,11,12,12,13,13,14,14,15,15,16,16,17,17,18,18,19,19,20,20,21,21,22,22,23,23,24,24,25,25,26,26,27,27,28,28,29,29,31,31,32,32,33,33,34,34,35,35,36,36,37,37,38,38,39,39,40,40,41,41,42,42,43,43,44,44,45,45,46,46,47,47,48,48,49,49,50,50,51,51,52,52,53,53,54,54,55,55,56,56,57,57,58,58],"right_children":[2,4,6,8,10,12,14,16,18,20,22,24,26,28,30,32,34,36,38,40,42,44,46,48,50,52,54,56,58,60,-1,62,64,66,68,70,72,74,76,78,80,82,84,86,88,90,92,94,96,98,100,102,104,106,108,110,112,114,116,-1,-1,-1,-1,-1,-1,-1,-1,-1,-1,-1,-1,-1,-1,-1,-1,-1,-1,-1,-1,-1,-1,-1,-1,-1,-1,-1,-1,-1,-1,-1,-1,-1,-1,-1,-1,-1,-1,-1,-1,-1,-1,-1,-1,-1,-1,-1,-1,-1,-1,-1,-1,-1,-1,-1,-1,-1,-1],"split_conditions":[4.5E-1,2.02E-1,6.5E-1,7E-2,3.2E-1,5.7E-1,8E-1,1.6511808E-1,1E0,3E-1,2.3514522E-2,5E-1,2.1924832E-1,1E0,1.5951844E-1,2E-3,2E0,1.5E-1,2E-1,1E0,1E0,4E0,4E-1,3.832258E-1,2.0246586E-2,1.1340852E-1,2.4135135E-1,7E-1,3E0,9E0,-5.0259184E-2,6.284856E-2,1.5207477E-1,2.804349E-1,1E0,7.754847E-2,1.5567967E-1,1.5E-1,1.827907E-1,2.3514522E-2,8E0,1.078454E-1,3E0,3.7E-1,9E0,5E0,4.1025642E-2,8.344803E-2,4.0563127E-1,4E0,1E1,1E0,1.5951844E-1,5E0,3.3832976E-1,4E0,9E0,3.1770834E-1,2.4135135E-1,-6.776439E-2,-3.786687E-2,6.0038185E-3,6.29973E-3,5.0515104E-3,-2.7250745E-3,7.478641E-3,1.0746413E-2,6.4066313E-3,7.10731E-3,2.9273657E-3,4.0315585E-3,7.550562E-4,1.9708837E-3,3.3696375E-3,1.5376923E-3,4.1552642E-3,7.2460896E-3,-5.008801E-3,-9.3046343E-4,-3.9800615E-3,4.7937864E-3,-3.5603573E-3,-5.194375E-3,3.9372863E-3,-1.4008497E-3,3.2115371E-3,-7.249918E-3,1.4567807E-3,-5.7616513E-3,-6.968356E-3,-4.231338E-3,-1.1816859E-2,-8.886426E-3,-1.2707054E-2,-1.4098982E-2,3.0596752E-3,-2.9115623E-3,5.541853E-4,-6.0196714E-3,-1.6390378E-2,-2.2759257E-2,-2.7658949E-2,-3.0841216E-2,-2.5752945E-2,-2.8847128E-2,-1.4766417E-2,-2.4310801E-2,-2.6359657E-2,-1.9728728E-2,-3.7157327E-2,-1.5186694E-2,-4.7270488E-2,-3.1939443E-2,-4.487798E-2,-3.344463E-2,-3.5119187E-2,-1.9389175E-2],"split_indices":[0,0,0,0,0,0,0,2,5,0,2,0,2,5,2,0,3,0,0,5,6,3,0,2,2,2,2,0,3,3,0,2,2,2,5,2,2,0,2,2,3,2,3,0,3,3,2,2,2,3,3,5,2,3,2,3,3,2,2,0,0,0,0,0,0,0,0,0,0,0,0,0,0,0,0,0,0,0,0,0,0,0,0,0,0,0,0,0,0,0,0,0,0,0,0,0,0,0,0,0,0,0,0,0,0,0,0,0,0,0,0,0,0,0,0,0,0],"split_type":[0,0,0,0,0,0,0,0,0,0,0,0,0,0,0,0,0,0,0,0,0,0,0,0,0,0,0,0,0,0,0,0,0,0,0,0,0,0,0,0,0,0,0,0,0,0,0,0,0,0,0,0,0,0,0,0,0,0,0,0,0,0,0,0,0,0,0,0,0,0,0,0,0,0,0,0,0,0,0,0,0,0,0,0,0,0,0,0,0,0,0,0,0,0,0,0,0,0,0,0,0,0,0,0,0,0,0,0,0,0,0,0,0,0,0,0,0],"sum_hessian":[4.0997E4,3.5537E4,5.46E3,3.1957E4,3.58E3,3.771E3,1.689E3,2.3533E4,8.424E3,7.66E2,2.814E3,2.138E3,1.633E3,1.435E3,2.54E2,1.9002E4,4.531E3,3.87E3,4.554E3,4.98E2,2.68E2,4.5E1,2.769E3,8.39E2,1.299E3,1.332E3,3.01E2,4.49E2,9.86E2,1.05E2,1.49E2,1.8685E4,3.17E2,1.182E3,3.349E3,1.454E3,2.416E3,2.392E3,2.162E3,4.21E2,7.7E1,2.63E2,5E0,2.4E1,2.1E1,1.64E2,2.605E3,8.35E2,4E0,1E1,1.289E3,7.82E2,5.5E2,4.4E1,2.57E2,1.5E1,4.34E2,6.16E2,3.7E2,1E2,5E0,4.883E3,1.3802E4,3.12E2,5E0,8.99E2,2.83E2,1.094E3,2.255E3,5.51E2,9.03E2,1.919E3,4.97E2,1.902E3,4.9E2,1.636E3,5.26E2,1.3E1,4.08E2,7.2E1,5E0,1.49E2,1.14E2,3E0,2E0,4E0,2E1,1.8E1,3E0,1.2E2,4.4E1,1.19E2,2.486E3,3.37E2,4.98E2,1E0,3E0,3E0,7E0,1.258E3,3.1E1,4.41E2,3.41E2,3.14E2,2.36E2,3.7E1,7E0,1.68E2,8.9E1,1E1,5E0,4.25E2,9E0,4.35E2,1.81E2,2.98E2,7.2E1],"tree_param":{"num_deleted":"0","num_feature":"7","num_nodes":"117","size_leaf_vector":"1"}},{"base_weights":[-1.4869473E-4,8.104094E-2,-5.1624E-1,1.0537052E-1,-1.4223962E-1,-3.7995225E-1,-8.2298416E-1,1.2279391E-1,5.624098E-2,-5.6895923E-2,-1.7152454E-1,-2.8786522E-1,-5.0887835E-1,-7.778988E-1,-1.0756639E0,1.1962613E-1,1.4261289E-1,4.563766E-2,7.049415E-2,-2.891086E-2,-9.388945E-2,-1.723922E-1,-3.8305975E-2,-2.5988585E-1,-3.0674943E-1,-5.166474E-1,-3.857117E-1,-8.0918103E-1,-5.591149E-1,-1.2727184E0,-9.302107E-1,1.1345743E-1,1.2162814E-1,1.6795129E-1,1.3340677E-1,6.1963547E-2,3.3194676E-2,7.898235E-2,3.6845125E-2,-6.167582E-2,-1.1605217E-2,-9.716742E-2,-4.719156E-2,-1.709639E-1,-2.5222072E-1,3.0144654E-2,-9.6080944E-2,